# 1.000000
por favor , ¿ podríamos ver otra habitación ?
NULL ({ 9 }) could ({ 5 }) we ({ 5 }) see ({ 5 6 }) another ({ 7 }) room ({ 8 }) , ({ 1 }) please ({ 2 3 }) ? ({ 4 }) 
# 1.000000
¿ hay caja fuerte en las habitaciones ?
NULL ({ 1 }) is ({ 2 }) there ({ 2 }) a ({ 3 }) safe ({ 3 4 }) in ({ 5 }) the ({ 6 }) rooms ({ 6 7 }) ? ({ 8 }) 
# 1.000000
he reservado una habitación .
NULL ({ }) i ({ 1 }) have ({ 2 }) booked ({ 2 }) a ({ 3 }) room ({ 4 }) . ({ 5 }) 
# 1.000000
por favor , ¿ me puede dar la llave de la habitación ?
NULL ({ 10 13 }) can ({ 6 }) you ({ 6 }) give ({ 7 }) me ({ 5 }) the ({ 8 }) key ({ 9 }) to ({ 9 }) the ({ 11 }) room ({ 12 }) , ({ 1 }) please ({ 2 3 }) ? ({ 4 }) 
# 1.000000
¿ me lleva el equipaje al coche ?
NULL ({ 1 }) could ({ 2 3 }) you ({ 3 }) send ({ }) the ({ 6 }) luggage ({ 4 5 }) to ({ 5 }) the ({ 6 }) car ({ 6 7 }) ? ({ 8 }) 
# 1.000000
bajen nuestros bultos a la habitación número cuatrocientos dieciocho .
NULL ({ 5 }) send ({ 1 }) down ({ 1 }) our ({ 2 }) luggage ({ 2 3 }) to ({ 4 }) room ({ 6 }) number ({ 7 }) four ({ 8 }) one ({ 9 }) eight ({ 9 }) . ({ 10 }) 
# 1.000000
pienso que existe una equivocación en mi cuenta .
NULL ({ }) i ({ 2 }) think ({ 1 }) that ({ 1 2 }) there ({ 3 }) is ({ 3 }) a ({ 4 }) mistake ({ 5 }) in ({ 6 }) my ({ 7 }) bill ({ 8 }) . ({ 9 }) 
# 1.000000
¿ puede darnos la llave de la habitación ?
NULL ({ 1 }) can ({ 2 }) you ({ 2 }) give ({ 3 }) us ({ 3 }) the ({ 4 }) key ({ 5 6 }) to ({ 6 }) the ({ 7 }) room ({ 8 }) ? ({ 9 }) 
# 1.000000
¿ podríamos ver una habitación tranquila , por favor ?
NULL ({ 1 }) could ({ 2 }) we ({ 2 }) see ({ 2 3 }) a ({ 4 }) quiet ({ 6 }) room ({ 5 }) , ({ 7 8 }) please ({ 9 }) ? ({ 10 }) 
# 1.000000
por favor , quiero reservar una habitación doble con teléfono .
NULL ({ }) i ({ 4 }) want ({ 4 }) to ({ 5 }) book ({ 5 }) a ({ 6 }) double ({ 8 }) room ({ 7 }) with ({ 9 }) a ({ 10 }) telephone ({ 10 }) , ({ 1 }) please ({ 2 3 }) . ({ 11 }) 
# 1.000000
¡ no !
NULL ({ }) no ({ 2 3 }) ! ({ 1 3 }) 
# 1.000000
¿ hay una habitación individual libre ?
NULL ({ 1 }) is ({ 2 }) there ({ 2 }) a ({ 3 4 }) single ({ 5 }) room ({ }) available ({ 6 }) ? ({ 7 }) 
# 1.000000
¿ nos podrían dar la llave de la habitación número seis cuatro cero ?
NULL ({ 8 }) could ({ 3 }) you ({ 1 3 }) give ({ 4 }) us ({ 2 4 }) the ({ 5 }) key ({ 6 }) to ({ 6 7 }) room ({ 9 }) number ({ 10 }) six ({ 11 }) four ({ 12 }) oh ({ 13 }) ? ({ 14 }) 
# 1.000000
despiértenme a la una y media , por favor .
NULL ({ }) wake ({ 1 }) me ({ 1 }) up ({ 1 2 }) at ({ 2 }) half ({ 6 }) past ({ 5 6 }) one ({ 3 4 }) , ({ 7 8 }) please ({ 8 9 }) . ({ 10 }) 
# 1.000000
¿ tiene habitaciones individuales y tranquilas libres ?
NULL ({ 1 3 }) do ({ 2 }) you ({ 2 }) have ({ 2 }) any ({ 6 7 }) quiet ({ 5 6 }) , ({ 4 }) single ({ 4 }) rooms ({ }) available ({ }) ? ({ 8 }) 
# 1.000000
por favor , hice la reserva de una habitación doble tranquila con cuarto de baño y vistas a la ciudad a nombre de arturo mira .
NULL ({ 13 19 21 23 }) i ({ 4 }) made ({ 4 }) a ({ 4 }) reservation ({ 6 }) for ({ 22 }) a ({ 8 }) quiet ({ 11 }) , ({ 1 2 3 }) double ({ 10 }) room ({ 9 }) with ({ 12 }) a ({ }) bathroom ({ 15 }) and ({ 16 17 }) a ({ }) view ({ 14 }) of ({ 7 }) the ({ 5 }) town ({ 20 }) for ({ }) arturo ({ 24 }) mira ({ 18 24 25 }) . ({ 26 }) 
# 1.000000
queremos una habitación para nueve noches , por favor .
NULL ({ }) we ({ 1 }) want ({ 1 }) a ({ 2 }) room ({ 3 }) for ({ 4 }) nine ({ 5 }) nights ({ 6 }) , ({ 7 8 }) please ({ 8 9 }) . ({ 10 }) 
# 1.000000
por favor , ¿ nos podría dar la llave de la habitación cinco nueve ?
NULL ({ 10 11 15 }) could ({ 6 }) you ({ 6 }) give ({ 7 }) us ({ 5 }) the ({ 8 }) key ({ 9 }) to ({ 9 }) room ({ 12 }) number ({ 13 }) five ({ 13 }) nine ({ 14 }) , ({ 1 }) please ({ 1 2 3 }) ? ({ 4 }) 
# 1.000000
¿ nos podría dar usted la llave de mi habitación ?
NULL ({ 1 }) could ({ 3 }) you ({ 2 }) give ({ 4 5 }) us ({ 5 }) the ({ 6 }) key ({ 7 8 }) to ({ 7 }) my ({ 9 }) room ({ 10 }) ? ({ 11 }) 
# 1.000000
despiérteme mañana a las tres menos cuarto , por favor .
NULL ({ }) wake ({ 1 }) me ({ 1 }) up ({ 1 }) tomorrow ({ 2 }) at ({ 3 4 }) a ({ 6 }) quarter ({ 6 7 }) to ({ 6 }) three ({ 5 }) , ({ 8 9 }) please ({ 10 }) . ({ 11 }) 
# 1.000000
¿ están anotados en la cuenta los extras ?
NULL ({ 7 8 9 }) are ({ 2 }) extras ({ 3 }) included ({ 3 }) in ({ 4 }) the ({ 5 }) bill ({ 6 }) ? ({ 1 }) 
# 1.000000
la habitación es muy fría .
NULL ({ }) the ({ 1 }) room ({ 2 }) is ({ 3 }) very ({ 3 4 }) cold ({ 5 }) . ({ 6 }) 
# 1.000000
por favor , quisiera cambiarme a otra habitación con televisión .
NULL ({ }) i ({ 4 }) want ({ 4 }) to ({ 5 }) move ({ 5 6 7 }) to ({ 7 }) a ({ }) room ({ 8 }) with ({ 9 }) a ({ 10 }) tv ({ 10 }) , ({ 1 }) please ({ 2 3 }) . ({ 11 }) 
# 1.000000
me parece que se produjo un problema en la cuenta de la habitación nueve seis cuatro .
NULL ({ }) i ({ 3 }) think ({ 1 2 }) that ({ 2 3 }) there ({ 4 }) was ({ 4 5 }) a ({ 6 }) problem ({ 6 7 }) in ({ 8 }) the ({ 9 }) bill ({ 10 }) for ({ 11 }) room ({ 13 }) number ({ 12 14 }) nine ({ 14 }) six ({ 15 }) four ({ 16 }) . ({ 17 }) 
# 1.000000
por favor , querría que nos diera la llave de la habitación uno uno .
NULL ({ 10 11 }) i ({ 5 }) would ({ 4 }) like ({ 4 5 }) you ({ }) to ({ 7 }) give ({ 7 }) us ({ 6 7 }) the ({ 8 }) key ({ 9 }) to ({ 9 }) room ({ 12 }) number ({ 13 }) one ({ 13 14 }) one ({ 14 }) , ({ 1 }) please ({ 1 2 3 }) . ({ 15 }) 
# 1.000000
¿ me lleva las bolsas ?
NULL ({ 1 }) could ({ 2 }) you ({ 2 }) carry ({ 2 3 }) the ({ 4 }) bags ({ 4 5 }) ? ({ 6 }) 
# 1.000000
quisiéramos que subiese nuestras maletas a nuestra habitación .
NULL ({ }) we ({ 1 }) would ({ 3 }) like ({ 2 3 }) you ({ 3 }) to ({ 3 }) send ({ 3 }) up ({ 3 }) our ({ 4 }) suitcases ({ 3 4 5 }) to ({ 6 }) our ({ 7 }) room ({ 8 }) . ({ 9 }) 
# 1.000000
por favor , tengo reservada una habitación para esta noche a nombre de manuela valls .
NULL ({ 1 2 3 13 }) i ({ 4 }) have ({ 4 }) booked ({ 5 }) a ({ 6 }) room ({ 7 }) for ({ 8 }) tonight ({ 9 10 }) for ({ 11 12 }) manuela ({ 12 14 }) valls ({ 15 }) . ({ 16 }) 
# 1.000000
¿ podría cambiarme a otra habitación menos fría ?
NULL ({ 1 }) can ({ 3 }) you ({ 4 }) move ({ 2 3 4 5 }) me ({ 5 }) to ({ 5 }) a ({ 7 }) warmer ({ 7 8 }) room ({ 6 8 }) ? ({ 9 }) 
# 1.000000
he hecho la reserva de una habitación doble tranquila con teléfono y ducha .
NULL ({ 3 }) i ({ 1 }) have ({ 1 }) made ({ 2 }) a ({ 4 }) reservation ({ 4 }) for ({ 5 }) a ({ 6 7 }) quiet ({ 9 }) , ({ 9 }) double ({ 8 }) room ({ }) with ({ 10 }) a ({ 10 }) telephone ({ 11 }) and ({ 12 }) a ({ 12 }) shower ({ 13 }) . ({ 14 }) 
# 1.000000
¿ le importaría mostrarnos otra habitación ?
NULL ({ 1 }) would ({ 2 }) you ({ 2 }) mind ({ 3 }) showing ({ 4 }) us ({ 4 }) another ({ 5 }) room ({ 6 }) ? ({ 7 }) 
# 1.000000
¿ tiene libre una habitación con aseo , aire acondicionado y televisión ?
NULL ({ }) do ({ 2 3 }) you ({ 2 }) have ({ 2 }) a ({ 4 }) room ({ 5 }) with ({ 6 }) a ({ 6 }) bath ({ 7 }) , ({ 8 }) air ({ 9 }) conditioning ({ 10 }) and ({ 11 }) a ({ 12 }) tv ({ 12 }) available ({ 13 }) ? ({ 1 }) 
# 1.000000
me tengo que ir el lunes dos de julio por la tarde .
NULL ({ 10 }) i ({ 1 2 }) should ({ 4 }) leave ({ 3 4 }) on ({ 5 }) monday ({ 6 }) july ({ 9 }) the ({ 8 9 }) second ({ 7 9 }) in ({ 9 }) the ({ 11 }) afternoon ({ 12 }) . ({ 13 }) 
# 1.000000
¿ tienen una habitación libre con agua caliente y aire acondicionado ?
NULL ({ 12 }) do ({ 2 }) you ({ 2 }) have ({ 2 }) a ({ 3 }) room ({ 4 }) with ({ 6 }) hot ({ 7 }) water ({ 7 8 }) and ({ 9 }) air ({ 10 }) conditioning ({ 11 }) available ({ 5 }) ? ({ 1 }) 
# 1.000000
¿ podrían llamarnos a un taxi para la habitación nueve tres seis ?
NULL ({ 13 }) could ({ 2 }) you ({ 2 }) call ({ 3 4 5 }) a ({ 5 }) taxi ({ 6 }) for ({ 7 }) room ({ 9 }) number ({ 8 }) nine ({ 10 }) three ({ 11 }) six ({ 12 }) for ({ }) us ({ }) , ({ }) please ({ 1 }) ? ({ 1 }) 
# 1.000000
por favor , ¿ pueden subirnos ustedes las bolsas a la habitación ?
NULL ({ 13 }) can ({ 5 }) you ({ 5 }) send ({ 6 7 }) up ({ 6 }) our ({ 6 }) bags ({ 8 9 }) to ({ 10 }) the ({ 11 }) room ({ 12 }) , ({ 1 }) please ({ 2 3 }) ? ({ 4 }) 
# 1.000000
vamos a marcharnos el día siete a las once y media de la noche .
NULL ({ }) we ({ 1 }) are ({ 1 }) leaving ({ 1 2 3 }) on ({ 4 }) the ({ 4 }) seventh ({ 5 6 }) at ({ 7 8 }) half ({ 11 }) past ({ 10 11 }) eleven ({ 9 }) in ({ 12 }) the ({ 12 13 }) evening ({ 14 }) . ({ 15 }) 
# 1.000000
¿ está apuntado el recibo del teléfono ?
NULL ({ 8 }) is ({ 2 }) the ({ 4 }) phone ({ 2 3 4 5 6 7 }) bill ({ 5 }) included ({ 3 }) ? ({ 1 }) 
# 1.000000
¿ querrían pedirme un taxi ?, por favor .
NULL ({ 9 }) would ({ 2 }) you ({ 2 }) ask ({ 3 4 }) for ({ 3 }) a ({ }) taxi ({ 5 6 }) for ({ }) me ({ }) , ({ 7 }) please ({ 8 }) ? ({ 1 }) 
# 1.000000
he hecho la reserva de una habitación a nombre de julia vilanova .
NULL ({ 3 10 }) i ({ 1 }) have ({ 1 }) made ({ 2 }) a ({ 4 }) reservation ({ 4 }) for ({ 5 }) a ({ 6 }) room ({ 7 }) for ({ 8 9 }) julia ({ 9 11 }) vilanova ({ 12 }) . ({ 13 }) 
# 1.000000
por favor , llámeme a mi taxi .
NULL ({ }) could ({ 4 }) you ({ 4 }) call ({ 4 5 }) my ({ 6 }) taxi ({ 7 }) for ({ 7 8 }) me ({ }) , ({ 1 3 }) please ({ 2 3 }) ? ({ }) 
# 1.000000
¿ tienen libre alguna habitación ?
NULL ({ 1 }) do ({ 2 }) you ({ 2 }) have ({ }) a ({ 4 }) room ({ 5 }) available ({ 3 4 }) ? ({ 6 }) 
# 1.000000
¿ puede darnos usted la llave de la habitación número dos nueve cuatro , por favor ?
NULL ({ 8 }) can ({ 2 }) you ({ 1 2 }) give ({ 3 4 }) us ({ 4 }) the ({ 5 }) key ({ 5 6 7 }) to ({ 6 }) room ({ 9 }) number ({ 10 }) two ({ 11 }) nine ({ 12 }) four ({ 13 }) , ({ 14 }) please ({ 15 16 }) ? ({ 17 }) 
# 1.000000
¿ tiene aire acondicionado mi habitación ?
NULL ({ 1 }) does ({ 2 }) my ({ 5 }) room ({ 6 }) have ({ }) air ({ 3 }) conditioning ({ 4 }) ? ({ 7 }) 
# 1.000000
por favor , he hecho una reserva .
NULL ({ 1 2 3 }) i ({ 4 }) have ({ 4 }) made ({ 5 }) a ({ 6 }) reservation ({ 7 }) . ({ 8 }) 
# 1.000000
¿ tiene alguna habitación individual libre ?
NULL ({ 1 }) do ({ 2 }) you ({ 2 }) have ({ 2 }) a ({ 3 }) single ({ 5 }) room ({ 4 }) available ({ 6 }) ? ({ 7 }) 
# 1.000000
por favor , reservamos dos habitaciones dobles con televisión .
NULL ({ 1 2 3 }) we ({ 4 }) booked ({ 4 }) two ({ 5 }) double ({ 7 }) rooms ({ 6 7 }) with ({ 8 }) a ({ 9 }) tv ({ 9 }) . ({ 10 }) 
# 1.000000
¿ cuánta ?
NULL ({ 1 }) how ({ 2 }) much ({ 2 }) ? ({ 3 }) 
# 1.000000
por favor , tengo hecha una reserva .
NULL ({ 1 2 3 }) i ({ 4 }) have ({ 4 }) made ({ 5 }) a ({ 6 }) reservation ({ 7 }) . ({ 8 }) 
# 1.000000
¿ está incluida la cuenta del teléfono ?
NULL ({ 6 7 }) is ({ 2 }) the ({ 4 }) phone ({ 2 3 }) bill ({ 5 }) included ({ 8 }) ? ({ 1 }) 
# 1.000000
¿ podría llamarme a un taxi ?, por favor .
NULL ({ 10 }) could ({ 2 }) you ({ 2 }) call ({ 3 4 }) a ({ 5 }) taxi ({ 5 6 7 }) for ({ 5 }) me ({ }) , ({ 8 }) please ({ 9 }) ? ({ 1 }) 
# 1.000000
súbanos las maletas al coche .
NULL ({ }) put ({ 1 }) our ({ 1 }) suitcases ({ 2 3 }) in ({ }) the ({ 4 }) car ({ 4 5 }) . ({ 6 }) 
# 1.000000
¿ nos podría dar la llave de la habitación , por favor ?
NULL ({ 7 }) could ({ 3 }) you ({ 1 3 }) give ({ 4 }) us ({ 2 4 }) the ({ 5 }) key ({ 6 }) to ({ 6 }) the ({ 8 }) room ({ 9 }) , ({ 10 11 }) please ({ 12 }) ? ({ 13 }) 
# 1.000000
tengo hecha una reserva a nombre de susana padilla .
NULL ({ }) i ({ 1 }) have ({ 1 }) made ({ 2 }) a ({ 3 }) reservation ({ 4 }) for ({ 5 6 }) susana ({ 6 7 8 }) padilla ({ 9 }) . ({ 10 }) 
# 1.000000
nos hemos de marchar el catorce a la una y cuarto de la tarde .
NULL ({ 8 }) we ({ 2 }) should ({ 1 4 }) leave ({ 3 4 }) on ({ 5 }) the ({ 5 }) fourteenth ({ 4 5 6 }) at ({ 7 }) a ({ 9 }) quarter ({ 11 }) past ({ 10 11 }) one ({ }) in ({ 12 }) the ({ 13 }) afternoon ({ 14 }) . ({ 15 }) 
# 1.000000
reservé una habitación , por favor .
NULL ({ 4 5 6 }) i ({ 1 }) booked ({ 1 }) a ({ 2 }) room ({ 3 }) . ({ 7 }) 
# 1.000000
¿ está incluido el teléfono ?
NULL ({ 6 }) is ({ 2 }) the ({ 4 }) phone ({ 2 3 5 }) bill ({ 3 }) included ({ 3 4 }) ? ({ 1 }) 
# 1.000000
desearía que me llevara mi maleta a la habitación número setecientos tres , por favor .
NULL ({ }) i ({ 2 }) would ({ 1 }) like ({ 1 2 3 }) you ({ 2 }) to ({ 4 }) send ({ 4 }) my ({ 5 }) suitcase ({ 6 7 }) to ({ 7 8 }) room ({ 9 }) number ({ 10 }) seven ({ 11 }) oh ({ }) three ({ 12 }) , ({ 13 14 }) please ({ 15 }) . ({ 16 }) 
# 1.000000
¿ aceptarían tarjetas de crédito ?
NULL ({ }) would ({ 2 }) you ({ 1 3 }) accept ({ 3 }) credit ({ 2 3 4 }) cards ({ 3 5 }) ? ({ 6 }) 
# 1.000000
me he de marchar el jueves dieciséis a las nueve y media de la noche .
NULL ({ }) i ({ 2 }) should ({ 1 4 }) leave ({ 3 4 }) on ({ 5 }) thursday ({ 6 }) the ({ }) sixteenth ({ 7 }) at ({ 8 9 }) half ({ 12 }) past ({ 11 12 }) nine ({ 10 }) in ({ 13 }) the ({ 14 }) evening ({ 15 }) . ({ 16 }) 
# 1.000000
¿ está incluido el desayuno ?
NULL ({ 6 }) is ({ 2 }) breakfast ({ 2 3 4 5 }) included ({ 3 }) ? ({ 1 }) 
# 1.000000
tengo que irme el jueves veintiocho de octubre a las ocho en punto de la mañana .
NULL ({ }) i ({ 2 }) should ({ 1 3 }) leave ({ 2 3 }) on ({ 4 }) thursday ({ 5 }) october ({ 8 }) the ({ 7 }) twenty ({ }) - ({ 6 }) eighth ({ 6 }) at ({ 9 10 }) eight ({ 11 }) o ({ 12 13 }) ' ({ 13 }) clock ({ 13 }) in ({ 14 }) the ({ 14 15 }) morning ({ 16 }) . ({ 17 }) 
# 1.000000
he reservado una habitación doble tranquila a nombre de enrique velasco .
NULL ({ }) i ({ 1 }) have ({ 1 2 }) booked ({ 2 }) a ({ 3 }) quiet ({ 6 }) , ({ 6 }) double ({ 5 }) room ({ 4 }) for ({ 7 8 }) enrique ({ 8 9 10 }) velasco ({ 11 }) . ({ 12 }) 
# 1.000000
me voy hoy .
NULL ({ }) i ({ 1 2 }) leave ({ 3 }) today ({ 2 3 }) . ({ 4 }) 
# 1.000000
por favor , tengo la reserva de una habitación con teléfono , televisión y baño a nombre de isabel cabedo .
NULL ({ 1 2 3 5 7 18 }) i ({ 4 }) have ({ 4 }) a ({ 8 }) reservation ({ 6 }) for ({ 17 }) a ({ }) room ({ 9 }) with ({ 10 }) a ({ 11 }) telephone ({ 11 }) , ({ 12 }) a ({ 14 }) tv ({ 13 }) and ({ 13 14 }) a ({ 13 }) bath ({ 15 }) for ({ 16 17 }) isabel ({ 17 19 }) cabedo ({ 20 }) . ({ 21 }) 
# 1.000000
¿ están apuntados los impuestos ?
NULL ({ }) are ({ 2 }) taxes ({ 2 3 4 5 }) included ({ 5 6 }) ? ({ 1 6 }) 
# 1.000000
¿ podríamos reservar dos habitaciones ?
NULL ({ 1 }) could ({ 2 }) we ({ 2 }) book ({ 2 3 }) two ({ 4 }) rooms ({ 5 }) ? ({ 6 }) 
# 1.000000
deseo una habitación doble .
NULL ({ }) i ({ 1 }) want ({ 1 }) a ({ 2 }) double ({ 4 }) room ({ 3 }) . ({ 5 }) 
# 1.000000
hemos de irnos mañana a las nueve .
NULL ({ }) we ({ 1 }) should ({ 3 }) leave ({ 2 3 }) tomorrow ({ 4 }) at ({ 5 6 }) nine ({ 7 }) . ({ 8 }) 
# 1.000000
por favor , ¿ puede darme las llaves de la cero tres cero ?
NULL ({ 14 }) can ({ 5 }) you ({ 5 }) give ({ 5 }) me ({ 6 }) the ({ 7 }) keys ({ 7 8 }) to ({ 9 }) room ({ 10 }) number ({ 10 11 }) oh ({ 11 }) three ({ 12 }) oh ({ 13 }) , ({ 1 }) please ({ 2 3 }) ? ({ 4 }) 
# 1.000000
¿ cuánto vale por día una habitación doble ?
NULL ({ 1 }) how ({ 2 }) much ({ 2 }) is ({ 3 }) a ({ 6 }) double ({ 8 }) room ({ 7 }) per ({ 3 4 5 }) day ({ 5 }) ? ({ 9 }) 
# 1.000000
despiértenos mañana a la una en punto , por favor .
NULL ({ }) wake ({ 1 }) us ({ 1 }) up ({ 1 }) tomorrow ({ 2 }) at ({ 3 }) one ({ 4 5 }) o ({ 7 }) ' ({ 6 7 }) clock ({ 7 }) , ({ 8 9 }) please ({ 10 }) . ({ 11 }) 
# 1.000000
¿ podría ver una habitación doble con televisión ?
NULL ({ 1 }) could ({ 2 }) i ({ }) see ({ 3 }) a ({ 4 }) double ({ 6 }) room ({ 5 }) with ({ 7 }) a ({ 8 }) tv ({ 8 }) ? ({ 9 }) 
# 1.000000
tenemos que irnos .
NULL ({ }) we ({ 1 }) should ({ 2 3 }) leave ({ 3 }) . ({ 4 }) 
# 1.000000
me he de ir mañana a las diez y cuarto de la noche .
NULL ({ }) i ({ 1 2 }) should ({ 4 }) leave ({ 3 4 }) tomorrow ({ 5 }) at ({ 6 7 }) a ({ 9 }) quarter ({ 10 }) past ({ 9 10 }) ten ({ 8 }) in ({ 11 }) the ({ 12 }) evening ({ 13 }) . ({ 14 }) 
# 1.000000
¿ me podrían llevar mis bolsas al autobús ?
NULL ({ 1 }) could ({ 2 3 }) you ({ 3 }) send ({ 4 }) my ({ 5 }) bags ({ 6 }) to ({ 6 }) the ({ 7 }) bus ({ 7 8 }) ? ({ 9 }) 
# 1.000000
¿ le importaría cambiarme de habitación ?
NULL ({ 1 }) would ({ 2 }) you ({ 2 }) mind ({ 3 }) changing ({ 4 5 }) my ({ 4 }) room ({ 6 }) ? ({ 7 }) 
# 1.000000
reservé una habitación doble .
NULL ({ }) i ({ 1 }) booked ({ 1 }) a ({ 2 }) double ({ 4 }) room ({ 3 }) . ({ 5 }) 
# 1.000000
por favor , suban mi bolsa de viaje a la habitación seiscientos treinta y uno .
NULL ({ }) please ({ 1 2 3 }) send ({ 4 }) up ({ 4 }) my ({ 5 }) travel ({ 6 7 8 }) bag ({ 6 }) to ({ 9 }) room ({ 11 }) number ({ 10 12 }) six ({ 12 }) three ({ 13 14 }) one ({ 15 }) . ({ 16 }) 
# 1.000000
¿ podría reservar una habitación ?
NULL ({ 1 }) could ({ 2 }) i ({ }) book ({ 3 }) a ({ 4 }) room ({ 5 }) ? ({ 6 }) 
# 1.000000
desearía que me despertara mañana a las diez , por favor .
NULL ({ 9 }) i ({ 2 }) would ({ 1 }) like ({ 1 2 }) you ({ 2 }) to ({ 2 }) wake ({ }) me ({ 3 }) up ({ 4 }) tomorrow ({ 5 }) at ({ 6 7 }) ten ({ 8 }) , ({ 10 }) please ({ 11 }) . ({ 12 }) 
# 1.000000
tenemos reservada una habitación individual con televisión , teléfono y aseo hasta mañana a nombre de josé herrero , por favor .
NULL ({ 16 19 20 21 }) we ({ 1 }) have ({ 2 }) booked ({ 2 }) a ({ 3 }) single ({ 5 }) room ({ 4 }) with ({ 6 }) a ({ }) tv ({ 7 }) , ({ 8 }) a ({ }) telephone ({ 9 }) and ({ 10 }) a ({ 10 }) bath ({ 11 }) until ({ 12 }) tomorrow ({ 13 }) for ({ 14 15 }) josé ({ 15 17 }) herrero ({ 18 }) . ({ 22 }) 
# 1.000000
¿ cuánto cuesta una habitación doble con pensión completa ?
NULL ({ 1 }) how ({ 2 }) much ({ 2 }) does ({ 3 }) a ({ 4 }) double ({ 6 }) room ({ 5 }) with ({ 7 }) full ({ 8 9 }) board ({ 8 }) cost ({ }) ? ({ 10 }) 
# 1.000000
por favor , nos gustaría cambiarnos a otra habitación menos ruidosa .
NULL ({ }) we ({ 4 }) would ({ 5 }) like ({ 5 }) to ({ 7 }) move ({ 6 7 8 }) to ({ 10 }) a ({ 10 }) quieter ({ 10 11 }) room ({ 9 11 }) , ({ 1 }) please ({ 2 3 }) . ({ 12 }) 
# 1.000000
nos hemos de marchar mañana a las seis .
NULL ({ }) we ({ 1 2 }) should ({ 4 }) leave ({ 3 4 }) tomorrow ({ 5 }) at ({ 6 7 }) six ({ 8 }) . ({ 9 }) 
# 1.000000
he hecho una reserva .
NULL ({ }) i ({ 1 }) have ({ 1 }) made ({ 2 }) a ({ 3 }) reservation ({ 4 }) . ({ 5 }) 
# 1.000000
vamos a marcharnos mañana a las cinco en punto de la tarde .
NULL ({ }) we ({ 1 }) are ({ 1 }) leaving ({ 1 2 3 }) tomorrow ({ 4 }) at ({ 5 6 }) five ({ 7 }) o ({ 8 9 }) ' ({ 9 }) clock ({ 9 }) in ({ 10 }) the ({ 11 }) afternoon ({ 12 }) . ({ 13 }) 
# 1.000000
reservé una habitación doble y tranquila , por favor .
NULL ({ 8 9 }) i ({ 1 }) booked ({ 1 }) a ({ 2 }) quiet ({ 5 6 }) , ({ 7 }) double ({ 4 }) room ({ 3 }) . ({ 10 }) 
# 1.000000
reservamos una habitación individual .
NULL ({ }) we ({ 1 }) booked ({ 1 }) a ({ 2 }) single ({ 4 }) room ({ 3 }) . ({ 5 }) 
# 1.000000
deseo una habitación tranquila .
NULL ({ }) i ({ 1 }) want ({ 1 }) a ({ 2 }) quiet ({ 4 }) room ({ 3 }) . ({ 5 }) 
# 1.000000
he reservado una habitación individual , por favor .
NULL ({ 6 7 8 }) i ({ 1 }) have ({ 1 2 }) booked ({ 2 }) a ({ 3 }) single ({ 5 }) room ({ 4 }) . ({ 9 }) 
# 1.000000
la habitación está bien .
NULL ({ }) the ({ 1 }) room ({ 2 }) is ({ 3 }) all ({ 4 }) right ({ 3 4 }) . ({ 5 }) 
# 1.000000
¿ hay teléfono en la habitación ?
NULL ({ 1 }) is ({ 2 }) there ({ 2 }) a ({ 3 }) telephone ({ 3 }) in ({ 4 }) the ({ 5 }) room ({ 6 }) ? ({ 7 }) 
# 1.000000
reservamos dos habitaciones , por favor .
NULL ({ 4 5 6 }) we ({ 1 }) booked ({ 1 }) two ({ 2 }) rooms ({ 3 }) . ({ 7 }) 
# 1.000000
¿ tienen libre una habitación doble y tranquila ?
NULL ({ 4 9 }) do ({ 2 3 }) you ({ 2 }) have ({ 2 }) a ({ 7 }) quiet ({ 7 8 }) , ({ 8 }) double ({ 6 }) room ({ 5 }) available ({ }) ? ({ 1 }) 
# 1.000000
¿ le importaría mostrarnos alguna habitación tranquila , por favor ?
NULL ({ 1 }) would ({ 2 3 }) you ({ 2 }) mind ({ 3 }) showing ({ 4 5 }) us ({ 4 }) a ({ 5 6 }) quiet ({ 7 }) room ({ 7 }) , ({ 8 9 }) please ({ 9 10 }) ? ({ 11 }) 
# 1.000000
por favor , quisiéramos una habitación doble para una noche .
NULL ({ }) we ({ 4 }) want ({ 4 }) a ({ 5 6 }) double ({ 7 }) room ({ 7 }) for ({ 8 }) a ({ 9 }) night ({ 10 }) , ({ 1 }) please ({ 2 3 }) . ({ 11 }) 
# 1.000000
por favor , ¿ cuánto cuesta una habitación doble incluyendo servicio de habitaciones ?
NULL ({ }) how ({ 5 }) much ({ 5 }) does ({ 6 }) a ({ 7 }) double ({ 9 }) room ({ 8 }) including ({ 10 }) room ({ }) service ({ 11 12 13 }) cost ({ 14 }) , ({ 1 }) please ({ 2 3 }) ? ({ 4 }) 
# 1.000000
hemos reservado una habitación individual con teléfono a nombre del señor y la señora santos , por favor .
NULL ({ 17 18 }) we ({ 1 }) have ({ 2 }) booked ({ 2 }) a ({ 3 }) single ({ 5 }) room ({ 4 }) with ({ 6 }) a ({ 6 }) telephone ({ 7 }) for ({ 8 10 }) mr ({ 9 10 11 }) and ({ 12 }) mrs ({ 13 14 }) santos ({ 15 16 }) . ({ 19 }) 
# 1.000000
despiérteme a las seis .
NULL ({ }) wake ({ 1 }) me ({ 1 }) up ({ 2 }) at ({ 3 }) six ({ 4 }) . ({ 5 }) 
# 1.000000
tengo una reserva .
NULL ({ }) i ({ 1 }) have ({ 1 }) a ({ 2 }) reservation ({ 3 }) . ({ 4 }) 
# 1.000000
¿ podría cambiarnos de habitación ?
NULL ({ 1 }) can ({ 2 }) you ({ 2 }) change ({ 2 3 4 }) our ({ 3 }) room ({ 5 }) ? ({ 6 }) 
# 1.000000
prepare nuestra cuenta .
NULL ({ }) prepare ({ 1 }) our ({ 2 }) bill ({ 3 }) . ({ 4 }) 
# 1.000000
por favor , ¿ querría pedirnos un taxi ?
NULL ({ 9 }) would ({ 5 }) you ({ 5 }) ask ({ 6 7 }) for ({ 6 }) a ({ }) taxi ({ 8 }) for ({ }) us ({ }) , ({ 1 3 }) please ({ 2 3 }) ? ({ 4 }) 
# 1.000000
pienso que hay una equivocación en la factura .
NULL ({ }) i ({ 2 }) think ({ 1 }) that ({ 1 2 }) there ({ 3 }) is ({ 3 }) a ({ 4 }) mistake ({ 5 }) in ({ 6 }) the ({ 7 }) bill ({ 8 }) . ({ 9 }) 
# 1.000000
por favor , tengo una reserva a nombre de la señora guijarro .
NULL ({ 1 2 3 9 }) i ({ 4 }) have ({ 4 }) a ({ 5 }) reservation ({ 6 }) for ({ 7 8 }) mrs ({ 8 10 11 }) guijarro ({ 12 }) . ({ 13 }) 
# 1.000000
¿ puede despertarme a las cuatro y cuarto ?
NULL ({ 1 }) can ({ 2 }) you ({ 2 }) wake ({ 3 }) me ({ 3 }) up ({ 4 }) at ({ 5 }) a ({ 7 }) quarter ({ 8 }) past ({ 7 8 }) four ({ 6 }) ? ({ 9 }) 
# 1.000000
¿ nos pueden llevar las bolsas de viaje ?
NULL ({ 1 }) can ({ 2 3 }) you ({ 3 }) carry ({ 4 }) the ({ 7 }) travel ({ 7 8 }) bags ({ 5 6 8 }) ? ({ 9 }) 
# 1.000000
deseo que nos dé las llaves de la habitación siete dieciséis , por favor .
NULL ({ 8 }) i ({ 1 }) want ({ 1 }) you ({ 3 }) to ({ 2 4 }) give ({ 4 }) us ({ 3 4 }) the ({ 5 }) keys ({ 5 6 7 }) to ({ 6 }) room ({ 9 }) number ({ 10 }) seven ({ 10 }) one ({ 11 }) six ({ 11 }) , ({ 12 13 }) please ({ 14 }) . ({ 15 }) 
# 1.000000
hemos de marcharnos el sábado catorce de mayo .
NULL ({ }) we ({ 1 }) should ({ 3 }) leave ({ 2 3 }) on ({ 4 }) saturday ({ 5 }) may ({ 8 }) the ({ 7 }) fourteenth ({ 6 }) . ({ 9 }) 
# 1.000000
por favor , ¿ me podrían detallar la cuenta ?
NULL ({ 10 }) could ({ 6 }) you ({ 6 }) explain ({ 7 }) the ({ 8 }) bill ({ 9 }) for ({ }) me ({ 5 }) , ({ 1 3 }) please ({ 2 3 }) ? ({ 4 }) 
# 1.000000
¡ sí !
NULL ({ }) yes ({ 2 3 }) ! ({ 1 3 }) 
# 1.000000
tenemos que irnos mañana a la una .
NULL ({ }) we ({ 1 }) should ({ 1 }) leave ({ 2 3 }) tomorrow ({ 4 }) at ({ 5 }) one ({ 6 7 }) . ({ 8 }) 
# 1.000000
¿ les importaría subirme los bultos a la habitación tres diez ?
NULL ({ }) would ({ 2 }) you ({ 1 3 }) mind ({ 2 3 }) sending ({ 4 }) up ({ 4 }) my ({ 5 }) luggage ({ 5 6 }) to ({ 6 7 }) room ({ 9 }) number ({ 8 10 }) three ({ 10 }) one ({ 11 }) oh ({ 11 }) ? ({ 12 }) 
# 1.000000
¿ podrían preparar la cuenta ?, por favor .
NULL ({ 9 }) could ({ 2 }) you ({ 2 }) prepare ({ 3 }) the ({ 4 }) bill ({ 5 6 }) , ({ 7 }) please ({ 8 }) ? ({ 1 }) 
# 1.000000
¿ tenemos que firmar la hoja de registro ?
NULL ({ 1 }) should ({ 2 }) we ({ 2 }) sign ({ 3 4 }) the ({ 5 }) registration ({ 6 7 }) form ({ 6 8 }) ? ({ 9 }) 
# 1.000000
nos tenemos que ir el lunes cuatro de abril a las doce y media de la mañana .
NULL ({ }) we ({ 2 }) should ({ 1 2 }) leave ({ 3 4 }) on ({ 4 5 }) monday ({ 6 }) april ({ 9 }) the ({ 8 }) fourth ({ 6 7 }) at ({ 10 11 }) half ({ 14 }) past ({ 13 14 }) twelve ({ 12 }) in ({ }) the ({ 15 16 }) morning ({ 17 }) . ({ 18 }) 
# 1.000000
por favor , desearía una habitación .
NULL ({ }) i ({ 4 }) would ({ 4 }) like ({ 4 }) a ({ 5 }) room ({ 6 }) , ({ 1 }) please ({ 2 3 }) . ({ 7 }) 
# 1.000000
hicimos una reserva , por favor .
NULL ({ 4 5 6 }) we ({ 1 }) made ({ 1 }) a ({ 2 }) reservation ({ 3 }) . ({ 7 }) 
# 1.000000
hemos reservado una habitación hasta el dos de febrero .
NULL ({ }) we ({ 1 }) have ({ 2 }) booked ({ 2 }) a ({ 3 }) room ({ 4 }) until ({ 5 }) february ({ 9 }) the ({ 8 }) second ({ 6 7 }) . ({ 10 }) 
# 1.000000
por favor , ¿ tenemos que firmar la hoja de registro ?
NULL ({ 12 }) should ({ 5 }) we ({ 5 }) sign ({ 6 7 }) the ({ 8 }) registration ({ 9 10 11 }) form ({ 11 }) , ({ 1 3 }) please ({ 2 3 }) ? ({ 4 }) 
# 1.000000
¿ están apuntados los extras ?
NULL ({ }) are ({ 2 }) extras ({ 2 3 4 5 }) included ({ 5 6 }) ? ({ 1 6 }) 
# 1.000000
¿ nos podría dar la llave de la habitación ?
NULL ({ 1 }) could ({ 3 }) you ({ 3 }) give ({ 4 }) us ({ 2 4 }) the ({ 5 }) key ({ 6 7 }) to ({ 7 }) the ({ 8 }) room ({ 9 }) ? ({ 10 }) 
# 1.000000
tenemos reservada una habitación .
NULL ({ }) we ({ 1 }) have ({ 2 }) booked ({ 2 }) a ({ 3 }) room ({ 4 }) . ({ 5 }) 
# 1.000000
lleve el equipaje .
NULL ({ }) carry ({ 1 }) the ({ 2 }) luggage ({ 2 3 }) . ({ 4 }) 
# 1.000000
por favor , deseo que nos dé las llaves de la habitación cero uno cero .
NULL ({ }) i ({ 4 }) want ({ 4 }) you ({ }) to ({ 5 7 }) give ({ 7 }) us ({ 6 }) the ({ 8 }) keys ({ 8 9 10 }) to ({ 10 11 }) room ({ 12 }) number ({ }) oh ({ 13 }) one ({ 14 }) oh ({ 15 }) , ({ 1 }) please ({ 2 3 }) . ({ 16 }) 
# 1.000000
reservamos una habitación .
NULL ({ }) we ({ 1 }) booked ({ 1 }) a ({ 2 }) room ({ 3 }) . ({ 4 }) 
# 1.000000
¿ nos podrían despertar mañana a las seis y media ?
NULL ({ }) could ({ 3 }) you ({ 1 2 }) wake ({ 4 }) us ({ 2 }) up ({ }) tomorrow ({ 5 }) at ({ 6 7 }) half ({ 10 }) past ({ 9 10 }) six ({ 8 }) ? ({ 11 }) 
# 1.000000
¿ hay habitaciones libres con baño ?
NULL ({ }) are ({ 2 }) there ({ 2 }) any ({ 3 4 }) rooms ({ 3 }) with ({ 5 }) a ({ 6 }) bath ({ 6 }) available ({ 7 }) ? ({ 1 7 }) 
# 1.000000
por favor , he hecho la reserva de una habitación con televisión , teléfono y vistas al mar a nombre de asunción espinosa .
NULL ({ 13 }) i ({ 4 }) have ({ 4 }) made ({ 5 }) a ({ }) reservation ({ 7 }) for ({ 8 }) a ({ 9 10 }) room ({ 10 }) with ({ 11 }) a ({ 9 }) tv ({ 12 }) , ({ 1 2 3 }) a ({ }) telephone ({ 14 }) and ({ 15 }) a ({ 16 }) view ({ 16 }) of ({ }) the ({ 6 }) sea ({ 18 }) for ({ 19 20 }) asunción ({ 17 22 }) espinosa ({ 20 21 22 23 }) . ({ 24 }) 
# 1.000000
despiérteme a las dos y cuarto .
NULL ({ }) wake ({ 1 }) me ({ 1 }) up ({ 2 }) at ({ 3 }) a ({ 5 }) quarter ({ 6 }) past ({ 5 6 }) two ({ 4 }) . ({ 7 }) 
# 1.000000
¿ nos puede usted dar las llaves de mi habitación ?
NULL ({ 1 }) can ({ 3 }) you ({ 4 }) give ({ 4 5 }) us ({ 2 5 }) the ({ 6 }) keys ({ 6 7 }) to ({ 8 }) my ({ 9 }) room ({ 10 }) ? ({ 11 }) 
# 1.000000
¿ podríamos reservar dos habitaciones ?
NULL ({ 1 }) could ({ 2 }) we ({ 2 }) book ({ 2 3 }) two ({ 4 }) rooms ({ 5 }) ? ({ 6 }) 
# 1.000000
desearía reservar una habitación con aire acondicionado para veinte días , por favor .
NULL ({ }) i ({ 1 }) would ({ 1 }) like ({ 1 }) to ({ 2 }) book ({ 2 }) a ({ 3 }) room ({ 4 }) with ({ 5 }) air ({ 6 }) conditioning ({ 7 }) for ({ 8 }) twenty ({ 9 }) days ({ 10 }) , ({ 11 12 }) please ({ 13 }) . ({ 14 }) 
# 1.000000
por favor , ¿ me podría repasar la cuenta ?
NULL ({ 10 }) could ({ 6 }) you ({ 6 }) check ({ 7 }) the ({ 8 }) bill ({ 9 }) for ({ 9 }) me ({ 5 }) , ({ 1 3 }) please ({ 2 3 }) ? ({ 4 }) 
# 1.000000
por favor , desearíamos cambiarnos a otra habitación con televisión y cuarto de baño .
NULL ({ }) we ({ 4 }) would ({ 4 }) like ({ 4 }) to ({ 6 }) move ({ 5 6 7 }) to ({ 7 }) a ({ }) room ({ 8 }) with ({ 9 }) a ({ 10 }) tv ({ 10 }) and ({ 11 }) a ({ 11 }) bathroom ({ 12 13 14 }) , ({ 1 }) please ({ 1 2 3 }) . ({ 15 }) 
# 1.000000
por favor , me hace mi cuenta .
NULL ({ }) could ({ }) you ({ }) make ({ 5 }) out ({ 5 }) my ({ 6 }) bill ({ 7 }) for ({ 7 8 }) me ({ 4 }) , ({ 1 }) please ({ 2 3 }) ? ({ 2 }) 
# 1.000000
¿ cuánto cuesta una habitación doble ?
NULL ({ 1 }) how ({ 2 }) much ({ 2 }) does ({ 3 }) a ({ 4 5 }) double ({ 6 }) room ({ }) cost ({ }) ? ({ 7 }) 
# 1.000000
¿ me podría llamar a un taxi ?
NULL ({ 1 }) could ({ 3 }) you ({ 3 }) call ({ 4 5 }) a ({ 6 }) taxi ({ 6 7 }) for ({ 6 }) me ({ 2 }) , ({ }) please ({ }) ? ({ 8 }) 
# 1.000000
desearía que me llevasen mi bolsa a la habitación número ocho cero tres .
NULL ({ }) i ({ 2 }) would ({ 1 }) like ({ 1 2 3 }) you ({ 3 }) to ({ 4 }) send ({ 4 }) my ({ 5 }) bag ({ 6 }) to ({ 7 8 }) room ({ 9 }) number ({ 10 }) eight ({ 11 }) oh ({ 12 }) three ({ 13 }) . ({ 14 }) 
# 1.000000
¿ les importaría darme las llaves de la habitación , por favor ?
NULL ({ 2 }) would ({ 3 }) you ({ 1 3 }) mind ({ 3 }) giving ({ 4 }) me ({ 4 }) the ({ 5 }) keys ({ 5 6 }) to ({ 7 }) the ({ 8 }) room ({ 9 }) , ({ 10 11 }) please ({ 12 }) ? ({ 13 }) 
# 1.000000
lleve mi equipaje a la estación .
NULL ({ }) send ({ 1 }) my ({ 2 }) luggage ({ 3 }) to ({ 4 }) the ({ 5 }) station ({ 6 }) . ({ 7 }) 
# 1.000000
por favor , hágame la cuenta .
NULL ({ }) could ({ 4 }) you ({ 4 }) make ({ 4 }) out ({ 4 }) the ({ 5 }) bill ({ 6 }) for ({ 6 7 }) me ({ }) , ({ 1 }) please ({ 2 3 }) ? ({ 2 }) 
# 1.000000
¿ puede darnos la llave de la habitación número dos cinco nueve , por favor ?
NULL ({ 7 }) can ({ 2 }) you ({ 1 2 }) give ({ 3 }) us ({ 3 }) the ({ 4 }) key ({ 4 5 6 }) to ({ 6 }) room ({ 8 }) number ({ 9 }) two ({ 10 }) five ({ 11 }) nine ({ 12 }) , ({ 13 14 }) please ({ 14 15 }) ? ({ 16 }) 
# 1.000000
hemos reservado una habitación para hoy .
NULL ({ }) we ({ 1 }) have ({ 2 }) booked ({ 2 }) a ({ 3 }) room ({ 4 }) for ({ 5 }) today ({ 6 }) . ({ 7 }) 
# 1.000000
quiero una habitación doble para hoy .
NULL ({ }) i ({ 1 }) want ({ 1 }) a ({ 2 3 }) double ({ 4 }) room ({ 4 }) for ({ 5 }) today ({ 6 }) . ({ 7 }) 
# 1.000000
¿ cuánto vale una habitación individual ?
NULL ({ 1 }) how ({ 2 }) much ({ 2 3 }) is ({ 3 }) a ({ 4 }) single ({ 6 }) room ({ 5 6 }) ? ({ 7 }) 
# 1.000000
¿ le importaría darnos las llaves de la habitación , por favor ?
NULL ({ 1 }) would ({ 2 }) you ({ 2 }) mind ({ 3 }) giving ({ 4 }) us ({ 4 }) the ({ 4 }) keys ({ 5 6 }) to ({ 7 }) the ({ 8 }) room ({ 9 }) , ({ 10 11 }) please ({ 12 }) ? ({ 13 }) 
# 1.000000
por favor , haga la cuenta .
NULL ({ }) please ({ 1 2 3 }) make ({ 4 }) out ({ 4 }) the ({ 5 }) bill ({ 6 }) . ({ 7 }) 
# 1.000000
queremos reservar una habitación , por favor .
NULL ({ }) we ({ 1 }) want ({ 1 }) to ({ 2 }) book ({ 2 }) a ({ 3 }) room ({ 4 }) , ({ 5 6 }) please ({ 7 }) . ({ 8 }) 
# 1.000000
tenemos reservada una habitación individual a nombre de luis llopis .
NULL ({ 8 }) we ({ 1 }) have ({ 2 }) booked ({ 2 }) a ({ 3 }) single ({ 5 }) room ({ 4 5 }) for ({ 6 7 }) luis ({ 7 9 }) llopis ({ 10 }) . ({ 11 }) 
# 1.000000
¿ tiene aire acondicionado la habitación ?
NULL ({ 1 }) does ({ 2 }) the ({ 5 }) room ({ 6 }) have ({ }) air ({ 3 }) conditioning ({ 4 }) ? ({ 7 }) 
# 1.000000
creo que hay un error en la cuenta .
NULL ({ }) i ({ 2 }) think ({ 1 }) that ({ 1 2 }) there ({ 3 }) is ({ 3 }) an ({ 4 5 }) error ({ 5 }) in ({ 6 }) the ({ 7 }) bill ({ 8 }) . ({ 9 }) 
# 1.000000
quiero que me suba los bultos a la habitación , por favor .
NULL ({ 10 }) i ({ 1 }) want ({ 1 }) you ({ 3 }) to ({ 2 3 4 }) send ({ 4 }) up ({ 4 }) my ({ 5 }) luggage ({ 5 6 }) to ({ 7 }) the ({ 8 }) room ({ 9 }) , ({ 11 }) please ({ 12 }) . ({ 13 }) 
# 1.000000
denme las llaves de la habitación , por favor .
NULL ({ }) give ({ 1 }) me ({ 1 }) the ({ 2 }) keys ({ 2 3 }) to ({ 4 }) the ({ 5 }) room ({ 6 }) , ({ 7 8 }) please ({ 8 9 }) . ({ 10 }) 
# 1.000000
quiero una habitación con televisión , teléfono y agua caliente hasta el día veintisiete .
NULL ({ }) i ({ 1 }) want ({ 1 }) a ({ 2 }) room ({ 3 }) with ({ 4 }) a ({ 4 }) tv ({ 5 }) , ({ 6 }) a ({ 7 }) telephone ({ 7 }) and ({ 8 }) hot ({ 9 }) water ({ 10 }) until ({ 11 }) the ({ 12 }) twenty ({ 14 }) - ({ 12 13 14 }) seventh ({ 14 }) . ({ 15 }) 
# 1.000000
he de irme mañana .
NULL ({ }) i ({ 1 }) should ({ 1 3 }) leave ({ 2 3 }) tomorrow ({ 4 }) . ({ 5 }) 
# 1.000000
despiértenos mañana a las seis en punto , por favor .
NULL ({ }) wake ({ 1 }) us ({ 1 }) up ({ 1 }) tomorrow ({ 2 }) at ({ 3 4 }) six ({ 5 }) o ({ 7 }) ' ({ 6 7 }) clock ({ 7 }) , ({ 8 9 }) please ({ 10 }) . ({ 11 }) 
# 1.000000
deseo una habitación con cuarto de baño , televisión y buena vista a nombre de jorge balaguer , por favor .
NULL ({ 15 }) i ({ 1 }) want ({ 1 }) a ({ 2 }) room ({ 3 }) with ({ 4 }) a ({ 4 }) bathroom ({ 5 6 7 }) , ({ 8 }) a ({ 9 }) tv ({ 9 }) and ({ 10 }) a ({ 10 }) good ({ 11 12 }) view ({ 12 13 }) for ({ 14 }) jorge ({ 14 16 17 }) balaguer ({ 17 }) , ({ 18 19 }) please ({ 20 }) . ({ 21 }) 
# 1.000000
¿ me podrían dar las llaves de la habitación seiscientos trece , por favor ?
NULL ({ }) could ({ 3 }) you ({ 1 3 }) give ({ 4 }) me ({ 2 }) the ({ 8 }) keys ({ 5 6 7 }) to ({ 6 }) room ({ 9 }) number ({ 10 }) six ({ 10 }) one ({ 11 }) three ({ 11 }) , ({ 12 13 }) please ({ 13 14 }) ? ({ 15 }) 
# 1.000000
¿ les importaría darme la llave de mi habitación ?
NULL ({ 1 }) would ({ 2 }) you ({ 3 }) mind ({ 3 }) giving ({ 4 }) me ({ 4 }) the ({ 5 }) key ({ 6 }) to ({ 7 }) my ({ 8 }) room ({ 9 }) ? ({ 10 }) 
# 1.000000
tengo que irme mañana a las diez en punto de la mañana .
NULL ({ }) i ({ 1 }) should ({ 3 }) leave ({ 2 3 }) tomorrow ({ 4 }) at ({ 5 6 }) ten ({ 7 }) o ({ 8 9 }) ' ({ 9 }) clock ({ 9 }) in ({ 10 }) the ({ 11 }) morning ({ 12 }) . ({ 13 }) 
# 1.000000
he reservado una habitación .
NULL ({ }) i ({ 1 }) have ({ 2 }) booked ({ 2 }) a ({ 3 }) room ({ 4 }) . ({ 5 }) 
# 1.000000
¿ podríamos ver una habitación ?
NULL ({ 1 }) could ({ 2 }) we ({ 2 }) see ({ 2 3 }) a ({ 4 }) room ({ 5 }) ? ({ 6 }) 
# 1.000000
¿ podría bajar nuestra maleta a nuestra habitación ?
NULL ({ 1 }) could ({ 2 }) you ({ 2 }) send ({ 3 }) down ({ 3 }) our ({ 4 }) suitcase ({ 5 }) to ({ 6 }) our ({ 7 }) room ({ 8 }) ? ({ 9 }) 
# 1.000000
por favor , reservé una habitación tranquila doble con baño , una buena vista y televisión a nombre de andrés sanz .
NULL ({ 19 }) i ({ 1 4 }) booked ({ 4 }) a ({ 2 }) quiet ({ 7 }) , ({ 3 }) double ({ 8 }) room ({ 6 }) with ({ 9 }) a ({ 5 9 }) bath ({ 10 }) , ({ 11 }) a ({ 12 }) good ({ 13 }) view ({ 14 }) and ({ 14 15 }) a ({ }) tv ({ 16 }) for ({ 17 18 }) andrés ({ 18 20 }) sanz ({ 21 }) . ({ 22 }) 
# 1.000000
¿ tienen libre alguna habitación ?
NULL ({ 1 }) do ({ 2 }) you ({ 2 }) have ({ }) a ({ 4 }) room ({ 5 }) available ({ 3 4 }) ? ({ 6 }) 
# 1.000000
no estoy de acuerdo .
NULL ({ 2 }) i ({ }) do ({ 4 }) not ({ 1 3 4 }) agree ({ 4 }) . ({ 5 }) 
# 1.000000
quisiéramos una habitación individual hasta el próximo viernes .
NULL ({ }) we ({ 1 }) want ({ 1 }) a ({ 2 }) single ({ 4 }) room ({ 3 }) until ({ 5 }) next ({ 6 7 }) friday ({ 8 }) . ({ 9 }) 
# 1.000000
me marcharé el veintisiete de marzo a las dos y media de la tarde .
NULL ({ 5 }) i ({ 2 }) leave ({ 1 2 }) on ({ 3 }) march ({ 6 }) the ({ 3 }) twenty ({ 3 4 }) - ({ 4 }) seventh ({ 4 }) at ({ 7 8 }) half ({ 11 }) past ({ 10 11 }) two ({ 9 }) in ({ }) the ({ 12 13 }) afternoon ({ 14 }) . ({ 15 }) 
# 1.000000
queremos que nos lleven nuestro equipaje a nuestra habitación , por favor .
NULL ({ }) we ({ 1 }) want ({ 1 }) you ({ 3 }) to ({ 2 3 4 }) send ({ 4 }) our ({ 5 }) luggage ({ 6 }) to ({ 7 }) our ({ 8 }) room ({ 9 }) , ({ 10 11 }) please ({ 12 }) . ({ 13 }) 
# 1.000000
por favor , ¿ me querría pedir un taxi para la habitación nueve ocho uno ?
NULL ({ 16 }) would ({ 6 }) you ({ 6 }) ask ({ 7 8 }) for ({ 7 }) a ({ }) taxi ({ 9 }) for ({ 10 }) room ({ 12 }) number ({ 11 }) nine ({ 13 }) eight ({ 14 }) one ({ 15 }) for ({ }) me ({ 5 }) , ({ 1 }) please ({ 1 2 3 }) ? ({ 4 }) 
# 1.000000
por favor , ¿ nos podrían dar ustedes las llaves de la doscientos veintiséis ?
NULL ({ 12 15 }) could ({ 6 }) you ({ 6 }) give ({ 7 8 }) us ({ 5 8 }) the ({ 9 }) keys ({ 9 10 11 }) to ({ 10 }) room ({ }) number ({ }) two ({ }) two ({ 13 }) six ({ 14 }) , ({ 1 }) please ({ 1 2 3 }) ? ({ 4 }) 
# 1.000000
se ha producido una equivocación en la cuenta .
NULL ({ }) there ({ 2 }) has ({ 1 2 }) been ({ 2 3 }) a ({ 4 }) mistake ({ 5 }) in ({ 6 }) the ({ 7 }) bill ({ 8 }) . ({ 9 }) 
# 1.000000
por favor , ¿ nos puede despertar a las cuatro ?
NULL ({ 11 }) can ({ 6 }) you ({ 6 }) wake ({ 7 }) us ({ 5 }) up ({ 7 8 }) at ({ 9 }) four ({ 10 }) , ({ 1 }) please ({ 2 3 }) ? ({ 4 }) 
# 1.000000
¿ podríamos ver una habitación , por favor ?
NULL ({ 1 }) could ({ 2 }) we ({ 2 }) see ({ 2 3 }) a ({ 4 }) room ({ 5 }) , ({ 6 7 }) please ({ 7 8 }) ? ({ 9 }) 
# 1.000000
¿ podríamos reservar dos habitaciones individuales y tranquilas hasta el veintiocho ?
NULL ({ 1 }) could ({ 2 }) we ({ 2 }) book ({ 2 3 }) two ({ 4 }) quiet ({ 7 8 }) , ({ 6 }) single ({ 6 }) rooms ({ 5 6 }) until ({ 9 }) the ({ 10 }) twenty ({ 10 11 }) - ({ 11 }) eighth ({ 11 }) ? ({ 12 }) 
# 1.000000
por favor , pida nuestro taxi para la habitación ciento veintiocho .
NULL ({ }) please ({ 1 2 3 }) ask ({ 4 }) for ({ 4 }) our ({ 5 }) taxi ({ 6 }) for ({ 7 }) room ({ 9 }) number ({ 8 10 }) one ({ 10 }) two ({ 11 }) eight ({ 11 }) . ({ 12 }) 
# 1.000000
quisiera reservar una habitación individual y tranquila hasta el uno de noviembre , por favor .
NULL ({ 9 }) i ({ 1 }) want ({ 1 }) to ({ 1 }) book ({ 2 }) a ({ 3 }) quiet ({ 6 7 }) , ({ 7 }) single ({ 5 }) room ({ 4 }) until ({ 8 }) november ({ 12 }) the ({ 11 }) first ({ 10 }) , ({ 13 14 }) please ({ 15 }) . ({ 16 }) 
# 1.000000
existe una equivocación .
NULL ({ }) there ({ 1 }) is ({ 1 }) a ({ 2 }) mistake ({ 3 }) . ({ 4 }) 
# 1.000000
me he de ir el tres a las diez y cuarto de la mañana .
NULL ({ }) i ({ 2 }) should ({ 4 }) leave ({ 1 4 }) on ({ 5 }) the ({ 5 }) third ({ 2 3 4 5 6 }) at ({ 7 8 }) a ({ 10 }) quarter ({ 11 }) past ({ 10 11 }) ten ({ 9 }) in ({ 12 }) the ({ 13 }) morning ({ 14 }) . ({ 15 }) 
# 1.000000
¿ les importaría darnos la llave de la habitación ?
NULL ({ 1 }) would ({ 2 }) you ({ 3 }) mind ({ 3 }) giving ({ 4 }) us ({ 4 }) the ({ 5 }) key ({ 6 }) to ({ 7 }) the ({ 8 }) room ({ 9 }) ? ({ 10 }) 
# 1.000000
¿ puede detallarnos la cuenta ?
NULL ({ 1 }) can ({ 2 }) you ({ 2 }) explain ({ 3 }) the ({ 4 }) bill ({ 5 }) for ({ }) us ({ }) , ({ }) please ({ }) ? ({ 6 }) 
# 1.000000
¿ podríamos reservar dos habitaciones individuales para hoy ?
NULL ({ 1 }) could ({ 2 }) we ({ 2 }) book ({ 2 3 }) two ({ 4 }) single ({ 6 }) rooms ({ 5 6 }) for ({ 7 }) today ({ 8 }) ? ({ 9 }) 
# 1.000000
desearía una habitación .
NULL ({ }) i ({ 1 }) would ({ 1 }) like ({ 1 }) a ({ 2 }) room ({ 3 }) . ({ 4 }) 
# 1.000000
tengo reservada una habitación hasta el próximo viernes , por favor .
NULL ({ 10 11 12 }) i ({ 1 }) have ({ 1 }) booked ({ 2 }) a ({ 3 }) room ({ 4 }) until ({ 5 }) next ({ 6 7 }) friday ({ 8 }) . ({ 9 }) 
# 1.000000
por favor , una habitación con teléfono y vistas a nombre de la señora ramírez .
NULL ({ 12 }) a ({ 4 }) room ({ 5 }) with ({ 6 }) a ({ 6 }) telephone ({ 7 }) and ({ 8 }) a ({ 8 }) view ({ 9 }) for ({ 10 11 }) mrs ({ 11 13 14 }) ramírez ({ 15 }) , ({ 1 }) please ({ 2 3 }) . ({ 16 }) 
# 1.000000
la habitación es muy calurosa .
NULL ({ }) the ({ 1 }) room ({ 2 }) is ({ 3 }) very ({ 3 4 }) hot ({ 5 }) . ({ 6 }) 
# 1.000000
¿ tenemos que firmar la hoja de registro ?
NULL ({ 1 }) should ({ 2 }) we ({ 2 }) sign ({ 3 4 }) the ({ 5 }) registration ({ 6 7 }) form ({ 6 8 }) ? ({ 9 }) 
# 1.000000
¿ nos podrían llamar a un taxi para la habitación tres trece ?
NULL ({ 1 }) could ({ 3 }) you ({ 3 }) call ({ 4 5 6 }) a ({ 6 }) taxi ({ 7 }) for ({ 8 }) room ({ 10 }) number ({ 9 11 }) three ({ 11 }) one ({ 12 }) three ({ 11 12 }) for ({ }) us ({ 2 }) , ({ }) please ({ }) ? ({ 13 }) 
# 1.000000
por favor , llame a mi taxi .
NULL ({ }) please ({ 1 2 3 }) call ({ 4 5 }) my ({ 6 }) taxi ({ 7 }) . ({ 8 }) 
# 1.000000
por favor , ¿ le importaría llevar nuestras bolsas de viaje a la habitación número dos tres cinco ?
NULL ({ 19 }) would ({ 5 }) you ({ }) mind ({ 6 }) sending ({ 7 }) our ({ 8 }) travel ({ 10 11 }) bags ({ 9 }) to ({ 12 13 }) room ({ 14 }) number ({ 15 }) two ({ 16 }) three ({ 17 }) five ({ 18 }) , ({ 1 }) please ({ 2 3 }) ? ({ 4 }) 
# 1.000000
¿ podrían subir nuestros bultos a la cuatrocientos setenta y cuatro ?
NULL ({ 1 }) could ({ 2 }) you ({ 2 }) send ({ 3 }) up ({ 3 }) our ({ 4 }) luggage ({ 5 }) to ({ 6 }) room ({ 7 }) number ({ 7 8 }) four ({ 8 }) seven ({ 9 10 }) four ({ 11 }) ? ({ 12 }) 
# 1.000000
por favor , he reservado una habitación .
NULL ({ 2 3 }) i ({ 1 4 }) have ({ 4 5 }) booked ({ 5 }) a ({ 6 }) room ({ 7 }) . ({ 8 }) 
# 1.000000
¿ cuánto cuesta una habitación individual ?
NULL ({ 1 }) how ({ 2 }) much ({ 2 }) does ({ 3 }) a ({ 4 5 }) single ({ 6 }) room ({ }) cost ({ }) ? ({ 7 }) 
# 1.000000
¿ nos podrían dar la llave de la número cuatro siete uno , por favor ?
NULL ({ 8 }) could ({ 3 }) you ({ 1 3 }) give ({ 4 }) us ({ 2 4 }) the ({ 5 }) key ({ 5 6 7 }) to ({ 6 }) room ({ }) number ({ 9 }) four ({ 10 }) seven ({ 11 }) one ({ 12 }) , ({ 13 14 }) please ({ 14 15 }) ? ({ 16 }) 
# 1.000000
¿ haría el favor de cambiarme de habitación ?
NULL ({ 4 5 6 7 }) would ({ 2 }) you ({ 1 2 }) mind ({ 2 }) changing ({ 2 3 }) my ({ 2 }) room ({ 8 }) ? ({ 9 }) 
# 1.000000
¿ podría ver alguna habitación doble y tranquila con televisión , por favor ?
NULL ({ 1 11 }) could ({ 2 }) i ({ }) see ({ 3 4 }) a ({ 4 }) quiet ({ 7 8 }) , ({ 8 }) double ({ 6 }) room ({ 5 }) with ({ 9 }) a ({ 10 }) tv ({ 10 }) , ({ 12 }) please ({ 13 }) ? ({ 14 }) 
# 1.000000
¡ muchas gracias !
NULL ({ }) thank ({ 2 3 4 }) you ({ 3 }) very ({ 3 }) much ({ 3 }) ! ({ 1 }) 
# 1.000000
¿ está todo incluido ?
NULL ({ 1 }) is ({ 2 }) everything ({ 2 3 }) included ({ 4 }) ? ({ 5 }) 
# 1.000000
por favor , una habitación .
NULL ({ }) a ({ 4 }) room ({ 5 }) , ({ 1 2 }) please ({ 2 3 }) . ({ 6 }) 
# 1.000000
por favor , ¿ nos podría pedir un taxi para la habitación seis catorce ?
NULL ({ 15 }) could ({ 6 }) you ({ 6 }) ask ({ 7 8 }) for ({ 7 }) a ({ }) taxi ({ 9 }) for ({ 10 }) room ({ 12 }) number ({ 11 13 }) six ({ 13 }) one ({ 14 }) four ({ 14 }) for ({ }) us ({ 5 }) , ({ 1 }) please ({ 1 2 3 }) ? ({ 4 }) 
# 1.000000
¿ tienen habitaciones libres con teléfono ?
NULL ({ }) do ({ 2 }) you ({ 2 }) have ({ 2 }) any ({ 3 4 }) rooms ({ 3 }) with ({ 5 }) a ({ 6 }) telephone ({ 6 }) available ({ 7 }) ? ({ 1 7 }) 
# 1.000000
¿ le importaría darnos la llave de la habitación ?
NULL ({ 1 }) would ({ 2 }) you ({ 2 }) mind ({ 3 }) giving ({ 4 }) us ({ 4 }) the ({ 5 }) key ({ 6 }) to ({ 7 }) the ({ 8 }) room ({ 9 }) ? ({ 10 }) 
# 1.000000
¿ hay una habitación libre ?
NULL ({ }) is ({ 1 2 }) there ({ 2 }) a ({ 3 }) room ({ 4 }) available ({ 5 }) ? ({ 6 }) 
# 1.000000
¿ tenemos que rellenar la hoja de registro ?
NULL ({ 1 }) should ({ 2 }) we ({ 2 }) fill ({ 3 4 }) in ({ 4 }) the ({ 5 }) registration ({ 6 }) form ({ 7 8 }) ? ({ 9 }) 
# 1.000000
despiértenos mañana a las seis menos cuarto , por favor .
NULL ({ }) wake ({ 1 }) us ({ 1 }) up ({ 1 }) tomorrow ({ 2 }) at ({ 3 4 }) a ({ 6 }) quarter ({ 6 7 }) to ({ 6 }) six ({ 5 }) , ({ 8 9 }) please ({ 10 }) . ({ 11 }) 
# 1.000000
llámeme a mi taxi .
NULL ({ }) could ({ 1 }) you ({ 1 }) call ({ 1 2 }) my ({ 3 }) taxi ({ 4 }) for ({ 4 5 }) me ({ }) , ({ }) please ({ }) ? ({ }) 
# 1.000000
quisiera que me despertara a la una , por favor .
NULL ({ }) i ({ 1 2 }) would ({ }) like ({ }) you ({ }) to ({ }) wake ({ }) me ({ 3 }) up ({ 4 }) at ({ 5 }) one ({ 5 6 7 }) , ({ 8 9 }) please ({ 10 }) . ({ 11 }) 
# 1.000000
quiero una habitación individual y tranquila hasta mañana , por favor .
NULL ({ }) i ({ 1 }) want ({ 1 }) a ({ 2 3 }) quiet ({ 5 6 }) , ({ 9 }) single ({ 4 }) room ({ }) until ({ 7 }) tomorrow ({ 8 }) , ({ 9 10 }) please ({ 11 }) . ({ 12 }) 
# 1.000000
tengo una reserva , por favor .
NULL ({ 4 5 6 }) i ({ 1 }) have ({ 1 }) a ({ 2 }) reservation ({ 3 }) . ({ 7 }) 
# 1.000000
¿ hay televisión en la habitación , por favor ?
NULL ({ 1 }) is ({ 2 }) there ({ 2 }) a ({ 3 }) tv ({ 3 }) in ({ 4 }) the ({ 5 }) room ({ 6 }) , ({ 7 8 }) please ({ 8 9 }) ? ({ 10 }) 
# 1.000000
voy a marcharme el dos a las ocho de la noche .
NULL ({ 3 }) i ({ 1 }) am ({ 1 }) leaving ({ 1 2 }) on ({ 4 }) the ({ 4 }) second ({ 5 }) at ({ 6 7 }) eight ({ 8 }) in ({ 9 }) the ({ 10 }) evening ({ 11 }) . ({ 12 }) 
# 1.000000
vamos a marcharnos el domingo a las nueve en punto de la mañana .
NULL ({ }) we ({ 1 }) are ({ 1 }) leaving ({ 1 2 3 }) on ({ 4 }) sunday ({ 5 }) at ({ 6 7 }) nine ({ 8 }) o ({ 10 }) ' ({ 9 10 }) clock ({ 10 }) in ({ 11 }) the ({ 12 }) morning ({ 13 }) . ({ 14 }) 
# 1.000000
por favor , me llama a un taxi .
NULL ({ 1 }) could ({ }) you ({ }) call ({ 5 6 }) a ({ 7 }) taxi ({ 7 8 }) for ({ 8 9 }) me ({ 4 }) , ({ 3 }) please ({ 2 3 }) ? ({ }) 
# 1.000000
en la habitación hace mucho calor .
NULL ({ }) it ({ 4 }) is ({ 5 }) very ({ 6 }) hot ({ 5 6 }) in ({ 1 }) the ({ 2 }) room ({ 3 }) . ({ 7 }) 
# 1.000000
deseo una habitación individual .
NULL ({ }) i ({ 1 }) want ({ 1 }) a ({ 2 }) single ({ 4 }) room ({ 3 }) . ({ 5 }) 
# 1.000000
¿ dónde ?
NULL ({ 1 }) where ({ 2 }) ? ({ 3 }) 
# 1.000000
¿ cuánto cuesta por semana una habitación individual ?
NULL ({ 1 }) how ({ 2 }) much ({ 2 }) does ({ 3 }) a ({ 6 }) single ({ 8 }) room ({ 7 }) cost ({ }) per ({ 4 5 }) week ({ 5 }) ? ({ 9 }) 
# 1.000000
quisiera una habitación hasta el día veinte , por favor .
NULL ({ }) i ({ 1 }) want ({ 1 }) a ({ 2 }) room ({ 3 }) until ({ 4 5 }) the ({ 5 }) twentieth ({ 6 7 }) , ({ 8 9 }) please ({ 9 10 }) . ({ 11 }) 
# 1.000000
¿ les importaría darnos la llave de la habitación , por favor ?
NULL ({ 2 }) would ({ 3 }) you ({ 1 3 }) mind ({ 3 }) giving ({ 4 }) us ({ 4 }) the ({ 5 }) key ({ 6 7 }) to ({ 6 }) the ({ 8 }) room ({ 9 }) , ({ 10 11 }) please ({ 12 }) ? ({ 13 }) 
# 1.000000
¿ tiene aire acondicionado y agua caliente la habitación ?
NULL ({ 1 }) does ({ 2 }) the ({ 8 }) room ({ 9 }) have ({ }) air ({ 3 }) conditioning ({ 4 }) and ({ 5 }) hot ({ 6 }) water ({ 6 7 }) ? ({ 10 }) 
# 1.000000
despiérteme mañana a las diez y media , por favor .
NULL ({ 8 }) wake ({ 1 }) me ({ 1 }) up ({ 1 }) tomorrow ({ 2 }) at ({ 3 4 }) half ({ 7 }) past ({ 6 7 }) ten ({ 5 }) , ({ 9 }) please ({ 10 }) . ({ 11 }) 
# 1.000000
¿ podría bajar mis bolsas ?
NULL ({ 1 }) could ({ 2 }) you ({ 2 }) send ({ }) my ({ 4 }) bags ({ 4 5 }) down ({ 3 }) ? ({ 6 }) 
# 1.000000
¿ pueden ustedes bajarme mis bultos a la habitación ?
NULL ({ 1 }) can ({ 2 }) you ({ 3 }) send ({ 3 4 }) down ({ 4 }) my ({ 5 }) luggage ({ 6 }) to ({ 7 }) the ({ 8 }) room ({ 9 }) ? ({ 10 }) 
# 1.000000
¿ puede subirnos nuestro equipaje al coche ?
NULL ({ 1 }) can ({ 2 }) you ({ 2 }) put ({ 3 }) our ({ 4 }) luggage ({ 5 }) in ({ }) the ({ 6 }) car ({ 6 7 }) ? ({ 8 }) 
# 1.000000
me llamo gregorio pitarch .
NULL ({ }) my ({ 2 }) name ({ 1 2 }) is ({ 2 }) gregorio ({ 3 }) pitarch ({ 4 }) . ({ 5 }) 
# 1.000000
por favor , reservé una habitación .
NULL ({ 1 }) i ({ 2 3 4 }) booked ({ 4 }) a ({ 5 }) room ({ 6 }) . ({ 7 }) 
# 1.000000
¿ nos puede pedir un taxi ?, por favor .
NULL ({ 10 }) can ({ 3 }) you ({ 3 }) ask ({ 4 5 }) for ({ 4 }) a ({ }) taxi ({ 6 7 }) for ({ 6 }) us ({ 2 }) , ({ 8 }) please ({ 9 }) ? ({ 1 }) 
# 1.000000
por favor , tenenos hecha una reserva .
NULL ({ }) we ({ 1 4 }) have ({ 4 }) made ({ 2 3 4 5 }) a ({ 6 }) reservation ({ 7 }) . ({ 8 }) 
# 1.000000
¿ podría llamar a un taxi ?
NULL ({ 1 }) could ({ 2 }) you ({ 2 }) call ({ 3 4 5 }) a ({ 5 }) taxi ({ 6 }) , ({ }) please ({ }) ? ({ 7 }) 
# 1.000000
en la habitación hay demasiado ruido .
NULL ({ }) there ({ 4 }) is ({ 4 }) too ({ 5 }) much ({ 6 }) noise ({ 6 }) in ({ 1 }) the ({ 2 }) room ({ 3 }) . ({ 7 }) 
# 1.000000
¿ puede pedir un taxi ?
NULL ({ 1 }) can ({ 2 }) you ({ 2 }) ask ({ 3 4 }) for ({ 3 }) a ({ }) taxi ({ 5 }) , ({ }) please ({ }) ? ({ 6 }) 
# 1.000000
¿ podrían ustedes despertarme a las once menos cuarto ?
NULL ({ 1 }) could ({ 2 }) you ({ 3 }) wake ({ 3 4 }) me ({ 4 }) up ({ 4 5 }) at ({ 6 }) a ({ 8 }) quarter ({ 8 9 }) to ({ 8 }) eleven ({ 7 }) ? ({ 10 }) 
# 1.000000
por favor , me prepara la cuenta .
NULL ({ 3 }) could ({ }) you ({ }) prepare ({ 5 }) the ({ 6 }) bill ({ 7 }) for ({ 7 8 }) me ({ 4 }) , ({ 1 }) please ({ 2 }) ? ({ 2 }) 
# 1.000000
he reservado una habitación con televisión y baño a nombre de gerardo ródenas .
NULL ({ 11 }) i ({ 1 }) have ({ 1 }) booked ({ 2 }) a ({ 3 }) room ({ 4 }) with ({ 5 }) a ({ 6 }) tv ({ 6 }) and ({ 7 }) a ({ 7 }) bath ({ 8 }) for ({ 9 10 }) gerardo ({ 10 12 }) ródenas ({ 13 }) . ({ 14 }) 
# 1.000000
la habitación es muy fría .
NULL ({ }) the ({ 1 }) room ({ 2 }) is ({ 3 }) very ({ 3 4 }) cold ({ 5 }) . ({ 6 }) 
# 1.000000
¿ nos pueden dar ustedes la llave de la habitación ?
NULL ({ 1 }) can ({ 3 }) you ({ 2 }) give ({ 4 5 }) us ({ 4 }) the ({ 6 }) key ({ 7 8 }) to ({ 7 }) the ({ 9 }) room ({ 10 }) ? ({ 11 }) 
# 1.000000
por favor , ¿ me puede despertar a las once y media ?
NULL ({ 13 }) can ({ 6 }) you ({ 6 }) wake ({ 7 }) me ({ 5 }) up ({ 7 8 }) at ({ 9 }) half ({ 12 }) past ({ 11 12 }) eleven ({ 10 }) , ({ 1 }) please ({ 2 3 }) ? ({ 4 }) 
# 1.000000
¿ está todo ?
NULL ({ }) is ({ 2 }) everything ({ 2 3 }) included ({ 3 4 }) ? ({ 1 4 }) 
# 1.000000
¿ pueden explicar la cuenta ?
NULL ({ 1 }) can ({ 2 }) you ({ 2 }) explain ({ 3 }) the ({ 4 }) bill ({ 5 }) , ({ }) please ({ }) ? ({ 6 }) 
# 1.000000
¿ podría llevarme mis maletas ?
NULL ({ 1 }) could ({ 2 }) you ({ 3 }) carry ({ 3 }) my ({ 4 }) suitcases ({ 5 }) ? ({ 6 }) 
# 1.000000
deseo una habitación que tenga teléfono , vistas , televisión y baño a nombre de marina sáez .
NULL ({ 4 }) i ({ 1 }) want ({ 1 }) a ({ 2 }) room ({ 2 3 }) with ({ 5 }) a ({ }) telephone ({ 6 }) , ({ 7 }) a ({ }) view ({ 8 }) , ({ 9 }) a ({ 11 }) tv ({ 10 }) and ({ 10 11 }) a ({ 11 }) bath ({ 12 14 }) for ({ 13 14 15 }) marina ({ 16 }) sáez ({ 17 }) . ({ 18 }) 
# 1.000000
lléveme las bolsas al taxi .
NULL ({ }) send ({ 1 }) my ({ 1 }) bags ({ 2 3 4 }) to ({ 3 }) the ({ }) taxi ({ 5 }) . ({ 6 }) 
# 1.000000
pienso que se ha equivocado en la cuenta .
NULL ({ }) i ({ 2 }) think ({ 1 3 }) that ({ 2 3 }) a ({ }) mistake ({ 5 }) has ({ 3 4 }) been ({ 4 5 }) made ({ 5 }) in ({ 6 }) the ({ 7 }) bill ({ 8 }) . ({ 9 }) 
# 1.000000
¿ cuánto cuesta una habitación doble por semana ?
NULL ({ 1 }) how ({ 2 }) much ({ 2 }) does ({ 3 }) a ({ 4 }) double ({ 6 }) room ({ 5 }) cost ({ }) per ({ 7 8 }) week ({ 8 }) ? ({ 9 }) 
# 1.000000
me voy a marchar el viernes veintinueve de mayo a las nueve en punto de la noche .
NULL ({ 4 }) i ({ 2 }) am ({ 1 2 }) leaving ({ 2 3 }) on ({ 5 }) friday ({ 6 }) may ({ 9 }) the ({ 8 }) twenty ({ 7 }) - ({ 7 }) ninth ({ 7 }) at ({ 10 11 }) nine ({ 12 }) o ({ 13 14 }) ' ({ 14 }) clock ({ 14 }) in ({ }) the ({ 15 16 }) evening ({ 17 }) . ({ 18 }) 
# 1.000000
pienso que existe una equivocación .
NULL ({ }) i ({ 2 }) think ({ 1 }) that ({ 1 2 }) there ({ 3 }) is ({ 3 }) a ({ 4 }) mistake ({ 5 }) . ({ 6 }) 
# 1.000000
hemos reservado una habitación tranquila , por favor .
NULL ({ 6 7 8 }) we ({ 1 }) have ({ 2 }) booked ({ 2 }) a ({ 3 }) quiet ({ 5 }) room ({ 4 }) . ({ 9 }) 
# 1.000000
quisiéramos que nos despertara a las once y cuarto .
NULL ({ }) we ({ 1 }) would ({ }) like ({ 2 }) you ({ }) to ({ }) wake ({ }) us ({ 3 }) up ({ 4 5 }) at ({ 6 }) a ({ 8 }) quarter ({ 9 }) past ({ 8 9 }) eleven ({ 7 }) . ({ 10 }) 
# 1.000000
¿ podría bajar nuestro equipaje a recepción ?
NULL ({ 1 }) could ({ 2 }) you ({ 2 }) send ({ }) our ({ 4 }) luggage ({ 5 }) down ({ 3 }) to ({ 6 }) reception ({ 6 7 }) ? ({ 8 }) 
# 1.000000
por favor , despiértenos mañana a las dos .
NULL ({ }) please ({ 1 2 3 }) wake ({ 4 }) us ({ 4 }) up ({ 4 }) tomorrow ({ 5 }) at ({ 6 7 }) two ({ 8 }) . ({ 9 }) 
# 1.000000
por favor , he reservado una habitación .
NULL ({ 2 3 }) i ({ 1 4 }) have ({ 4 5 }) booked ({ 5 }) a ({ 6 }) room ({ 7 }) . ({ 8 }) 
# 1.000000
he hecho una reserva .
NULL ({ }) i ({ 1 }) have ({ 1 }) made ({ 2 }) a ({ 3 }) reservation ({ 4 }) . ({ 5 }) 
# 1.000000
¿ cuánto vale una habitación doble ?
NULL ({ 1 }) how ({ 2 }) much ({ 2 3 }) is ({ 3 }) a ({ 4 }) double ({ 6 }) room ({ 5 6 }) ? ({ 7 }) 
# 1.000000
desearía que nos despertasen a las tres y media , por favor .
NULL ({ }) i ({ 2 }) would ({ 1 }) like ({ 1 }) you ({ 3 }) to ({ 4 }) wake ({ 4 }) us ({ 3 4 }) up ({ 4 }) at ({ 5 6 }) half ({ 9 }) past ({ 8 9 }) three ({ 7 }) , ({ 10 11 }) please ({ 11 12 }) . ({ 13 }) 
# 1.000000
¡ no importa !
NULL ({ 1 }) it ({ 2 }) does ({ }) not ({ 2 }) matter ({ 2 3 }) ! ({ 4 }) 
# 1.000000
por favor , ¿ cuánto vale una habitación individual ?
NULL ({ 10 }) how ({ 5 }) much ({ 6 }) is ({ 6 }) a ({ 7 }) single ({ 9 }) room ({ 8 }) , ({ 1 }) please ({ 2 3 }) ? ({ 4 }) 
# 1.000000
¿ aceptan dinero en efectivo ?
NULL ({ }) do ({ 2 }) you ({ 1 3 }) accept ({ 2 3 }) cash ({ 4 5 }) ? ({ 6 }) 
# 1.000000
por favor , desearía una habitación .
NULL ({ }) i ({ 4 }) would ({ 4 }) like ({ 4 }) a ({ 5 }) room ({ 6 }) , ({ 1 }) please ({ 2 3 }) . ({ 7 }) 
# 1.000000
querría que nos despertaran mañana a las seis menos cuarto , por favor .
NULL ({ }) i ({ 2 }) would ({ 1 }) like ({ 1 2 }) you ({ }) to ({ }) wake ({ }) us ({ 3 }) up ({ 4 }) tomorrow ({ 5 }) at ({ 6 7 }) a ({ 9 }) quarter ({ 9 10 }) to ({ 9 }) six ({ 8 }) , ({ 11 12 }) please ({ 13 }) . ({ 14 }) 
# 1.000000
¿ tiene teléfono y aire acondicionado la habitación ?
NULL ({ 1 }) does ({ 2 }) the ({ 7 }) room ({ 8 }) have ({ }) a ({ 3 }) telephone ({ 3 }) and ({ 4 }) air ({ 5 }) conditioning ({ 6 }) ? ({ 9 }) 
# 1.000000
hemos reservado una habitación doble hasta pasado mañana .
NULL ({ }) we ({ 1 }) have ({ 2 }) booked ({ 2 }) a ({ 3 }) double ({ 5 }) room ({ 4 }) until ({ 6 }) the ({ 7 }) day ({ 7 }) after ({ 7 }) tomorrow ({ 8 }) . ({ 9 }) 
# 1.000000
¿ tiene alguna habitación libre con televisión , aire acondicionado y servicio de bar ?
NULL ({ 15 }) do ({ 2 }) you ({ 2 }) have ({ 2 }) a ({ 3 }) room ({ 4 }) with ({ 6 }) a ({ 6 }) tv ({ 7 }) , ({ 8 }) air ({ 9 }) conditioning ({ 10 }) and ({ 11 }) a ({ 11 }) minibar ({ 12 13 14 }) available ({ 5 }) ? ({ 1 }) 
# 1.000000
queremos una habitación .
NULL ({ }) we ({ 1 }) want ({ 1 }) a ({ 2 }) room ({ 3 }) . ({ 4 }) 
# 1.000000
por favor , desearía cambiarme a otra habitación con menos ruido .
NULL ({ }) i ({ }) would ({ 4 }) like ({ 4 }) to ({ 5 }) move ({ 5 6 7 }) to ({ 10 }) a ({ 10 }) quieter ({ 9 10 11 }) room ({ 8 11 }) , ({ 1 }) please ({ 2 3 }) . ({ 12 }) 
# 1.000000
¿ podría ver otra habitación ?
NULL ({ 1 }) could ({ 2 }) i ({ }) see ({ 3 }) another ({ 4 }) room ({ 5 }) ? ({ 6 }) 
# 1.000000
¿ hay servicio de bar en la habitación ?
NULL ({ 1 }) is ({ 2 }) there ({ 2 }) a ({ 3 }) minibar ({ 3 4 5 }) in ({ 6 }) the ({ 7 }) room ({ 8 }) ? ({ 9 }) 
# 1.000000
suba mi equipaje a la habitación número cero tres cinco .
NULL ({ 5 }) send ({ 1 }) up ({ 1 }) my ({ 2 }) luggage ({ 3 }) to ({ 4 }) room ({ 6 }) number ({ 7 }) oh ({ 8 }) three ({ 9 }) five ({ 10 }) . ({ 11 }) 
# 1.000000
¿ nos pueden preparar la factura ?, por favor .
NULL ({ 7 10 }) can ({ 3 }) you ({ 3 }) prepare ({ 4 }) the ({ 5 }) bill ({ 6 }) for ({ 6 }) us ({ 2 }) , ({ 8 }) please ({ 9 }) ? ({ 1 }) 
# 1.000000
en la habitación hay mucho ruido .
NULL ({ }) there ({ 4 }) is ({ }) a ({ }) lot ({ 5 }) of ({ 6 }) noise ({ 6 }) in ({ 1 }) the ({ 2 }) room ({ 3 }) . ({ 7 }) 
# 1.000000
vamos a irnos el día quince a las nueve menos cuarto de la mañana .
NULL ({ 7 }) we ({ 1 }) are ({ 1 }) leaving ({ 1 2 }) on ({ 4 }) the ({ 4 }) fifteenth ({ 3 4 5 6 }) at ({ 8 }) a ({ 10 }) quarter ({ 10 11 }) to ({ 10 }) nine ({ 9 }) in ({ 12 }) the ({ 13 }) morning ({ 14 }) . ({ 15 }) 
# 1.000000
¿ podría detallar nuestra cuenta de la habitación nueve cuatro uno ?
NULL ({ }) could ({ 2 }) you ({ 2 }) explain ({ 3 }) our ({ 4 }) bill ({ 5 }) for ({ 6 }) room ({ 8 }) number ({ 7 }) nine ({ 9 }) four ({ 10 }) one ({ 11 }) , ({ 12 }) please ({ 1 }) ? ({ 1 }) 
# 1.000000
por favor , ¿ me puede dar usted las llaves de la habitación uno uno tres ?
NULL ({ 12 17 }) can ({ 6 }) you ({ 6 }) give ({ 7 8 }) me ({ 5 8 }) the ({ 9 }) keys ({ 9 10 11 }) to ({ 11 }) room ({ 13 }) number ({ 14 }) one ({ 14 }) one ({ 15 }) three ({ 16 }) , ({ 1 }) please ({ 2 3 }) ? ({ 4 }) 
# 1.000000
desearía una habitación hasta el próximo martes .
NULL ({ }) i ({ 1 }) would ({ 1 }) like ({ 1 }) a ({ 2 }) room ({ 3 }) until ({ 4 }) next ({ 5 6 }) tuesday ({ 7 }) . ({ 8 }) 
# 1.000000
por favor , tengo la reserva de una habitación tranquila individual a nombre de enrique díaz .
NULL ({ 1 5 14 }) i ({ 4 }) have ({ 4 }) a ({ }) reservation ({ 6 }) for ({ 7 }) a ({ 8 9 }) quiet ({ 10 }) , ({ 2 3 10 }) single ({ 11 }) room ({ 12 }) for ({ 12 13 }) enrique ({ 13 15 }) díaz ({ 16 }) . ({ 17 }) 
# 1.000000
reservamos una habitación individual , por favor .
NULL ({ 5 6 7 }) we ({ 1 }) booked ({ 1 }) a ({ 2 }) single ({ 4 }) room ({ 3 }) . ({ 8 }) 
# 1.000000
¿ me puede dar la llave de la habitación , por favor ?
NULL ({ 7 }) can ({ 3 }) you ({ 1 3 }) give ({ 4 }) me ({ 2 }) the ({ 5 }) key ({ 6 }) to ({ 6 }) the ({ 8 }) room ({ 9 }) , ({ 10 11 }) please ({ 12 }) ? ({ 13 }) 
# 1.000000
hemos reservado una habitación .
NULL ({ }) we ({ 1 }) have ({ 2 }) booked ({ 2 }) a ({ 3 }) room ({ 4 }) . ({ 5 }) 
# 1.000000
en la habitación hace mucho calor .
NULL ({ }) it ({ 4 }) is ({ 5 }) very ({ 6 }) hot ({ 5 6 }) in ({ 1 }) the ({ 2 }) room ({ 3 }) . ({ 7 }) 
# 1.000000
por favor , he reservado una habitación tranquila individual con vistas a la montaña y televisión a nombre de la señora gómez .
NULL ({ 1 13 }) i ({ 4 }) have ({ 4 5 }) booked ({ 5 }) a ({ 6 }) quiet ({ 8 }) , ({ 2 3 }) single ({ 9 }) room ({ 7 }) with ({ 10 }) a ({ 10 }) view ({ 11 12 }) of ({ 19 }) the ({ 20 }) mountain ({ 14 }) and ({ 15 }) a ({ 16 }) tv ({ 16 }) for ({ 17 18 }) mrs ({ 18 21 }) gómez ({ 22 }) . ({ 23 }) 
# 1.000000
por favor , tengo hecha la reserva de una habitación con televisión y teléfono a nombre de la señorita calleja .
NULL ({ 1 2 8 }) i ({ 4 }) have ({ 4 }) made ({ 5 }) a ({ 9 }) reservation ({ 7 }) for ({ 6 }) a ({ 3 }) room ({ 10 }) with ({ 11 }) a ({ 12 }) tv ({ 12 }) and ({ 13 }) a ({ 13 }) telephone ({ 14 }) for ({ 15 16 }) miss ({ 16 17 18 19 }) calleja ({ 20 }) . ({ 21 }) 
# 1.000000
¿ tiene aire acondicionado , teléfono y televisión ?
NULL ({ 1 }) does ({ 2 }) it ({ 2 }) have ({ 2 }) air ({ 3 }) conditioning ({ 4 }) , ({ 5 }) a ({ 6 }) telephone ({ 6 }) and ({ 7 }) a ({ 8 }) tv ({ 8 }) ? ({ 9 }) 
# 1.000000
¿ hay alguna habitación tranquila libre ?
NULL ({ 1 }) is ({ 2 }) there ({ 2 }) a ({ 3 }) quiet ({ 5 }) room ({ 4 }) available ({ 6 }) ? ({ 7 }) 
# 1.000000
¿ tiene televisión ?
NULL ({ 1 }) does ({ 2 }) it ({ 2 }) have ({ 2 }) a ({ 3 }) tv ({ 3 }) ? ({ 4 }) 
# 1.000000
por favor , ¿ me podría dar usted la llave de la habitación ?
NULL ({ 14 }) could ({ 6 }) you ({ 6 }) give ({ 7 8 }) me ({ 5 8 }) the ({ 9 }) key ({ 10 }) to ({ 11 }) the ({ 12 }) room ({ 13 }) , ({ 1 }) please ({ 2 3 }) ? ({ 4 }) 
# 1.000000
deseamos cambiarnos a otra habitación con cuarto de baño , por favor .
NULL ({ }) we ({ 1 }) want ({ 1 }) to ({ 4 }) move ({ 2 3 4 }) to ({ 4 }) a ({ }) room ({ 5 }) with ({ 6 }) a ({ 9 }) bathroom ({ 7 8 9 }) , ({ 10 11 }) please ({ 12 }) . ({ 13 }) 
# 1.000000
¿ le importaría que echáramos un vistazo a alguna habitación ?
NULL ({ 1 }) would ({ 2 3 }) you ({ 2 }) mind ({ 3 }) us ({ 5 }) taking ({ 4 5 }) a ({ 6 }) look ({ 5 6 7 }) at ({ 8 }) a ({ 9 }) room ({ 10 }) ? ({ 11 }) 
# 1.000000
he reservado una habitación .
NULL ({ }) i ({ 1 }) have ({ 2 }) booked ({ 2 }) a ({ 3 }) room ({ 4 }) . ({ 5 }) 
# 1.000000
por favor , tengo reservada una habitación doble tranquila con tele y teléfono .
NULL ({ 1 }) i ({ 4 }) have ({ 4 }) booked ({ 5 6 }) a ({ 6 }) quiet ({ 9 }) , ({ 2 3 9 }) double ({ 8 }) room ({ 7 }) with ({ 10 }) a ({ 10 }) tv ({ 11 }) and ({ 12 }) a ({ 12 }) telephone ({ 13 }) . ({ 14 }) 
# 1.000000
¿ me podría dar la llave de la quinientos uno ?
NULL ({ }) could ({ 3 }) you ({ 1 2 }) give ({ 4 }) me ({ 2 }) the ({ 5 }) key ({ 6 }) to ({ 7 }) room ({ 7 }) number ({ 8 9 }) five ({ 9 }) oh ({ 9 }) one ({ 10 }) ? ({ 11 }) 
# 1.000000
una habitación a nombre de virginia álvarez , por favor .
NULL ({ }) a ({ 1 }) room ({ 2 }) for ({ 3 4 }) virginia ({ 4 5 6 }) álvarez ({ 7 }) , ({ 8 9 }) please ({ 9 10 }) . ({ 11 }) 
# 1.000000
por favor , ¿ pueden bajarnos los bultos a la habitación ?
NULL ({ 12 }) can ({ 5 }) you ({ 5 }) send ({ 6 }) down ({ 6 }) our ({ 6 }) luggage ({ 7 8 }) to ({ 9 }) the ({ 10 }) room ({ 11 }) , ({ 1 3 }) please ({ 2 3 }) ? ({ 4 }) 
# 1.000000
tengo hecha la reserva de una habitación a nombre de teresa martínez .
NULL ({ 3 10 }) i ({ 1 }) have ({ 1 }) made ({ 2 }) a ({ 4 }) reservation ({ 4 }) for ({ 5 }) a ({ 6 }) room ({ 7 }) for ({ 8 9 }) teresa ({ 9 11 }) martínez ({ 12 }) . ({ 13 }) 
# 1.000000
¿ podríamos ver alguna habitación ?
NULL ({ 1 }) could ({ 2 }) we ({ 2 }) see ({ 2 3 4 }) a ({ 4 }) room ({ 5 }) ? ({ 6 }) 
# 1.000000
tengo reservada una habitación individual .
NULL ({ }) i ({ 1 }) have ({ 1 2 }) booked ({ 2 }) a ({ 3 }) single ({ 5 }) room ({ 4 }) . ({ 6 }) 
# 1.000000
por favor , ¿ me pueden dar la llave de la número doscientos catorce ?
NULL ({ 11 15 }) can ({ 6 }) you ({ 6 }) give ({ 7 }) me ({ 5 }) the ({ 8 }) key ({ 8 9 10 }) to ({ 9 }) room ({ }) number ({ 12 }) two ({ 13 }) one ({ 14 }) four ({ 14 }) , ({ 1 }) please ({ 1 2 3 }) ? ({ 4 }) 
# 1.000000
¿ podría cambiarnos a otra habitación con menos ruido ?
NULL ({ 1 }) can ({ 3 }) you ({ 4 }) move ({ 2 3 4 5 }) us ({ 3 }) to ({ }) a ({ 8 }) quieter ({ 7 8 9 }) room ({ 6 9 }) ? ({ 10 }) 
# 1.000000
quisiera una habitación doble y tranquila , por favor .
NULL ({ }) i ({ 1 }) want ({ 1 }) a ({ 2 3 }) quiet ({ 5 6 }) , ({ 7 }) double ({ 4 }) room ({ }) , ({ 8 }) please ({ 9 }) . ({ 10 }) 
# 1.000000
por favor , ¿ podríamos ver otra habitación ?
NULL ({ 9 }) could ({ 5 }) we ({ 5 }) see ({ 5 6 }) another ({ 7 }) room ({ 8 }) , ({ 1 }) please ({ 2 3 }) ? ({ 4 }) 
# 1.000000
¿ cuánto vale por semana una habitación doble , por favor ?
NULL ({ 1 }) how ({ 2 }) much ({ 2 }) is ({ 3 }) a ({ 6 }) double ({ 8 }) room ({ 7 }) per ({ 3 4 5 }) week ({ 5 }) , ({ 9 10 }) please ({ 10 11 }) ? ({ 12 }) 
# 1.000000
despiértenos a la una menos cuarto , por favor .
NULL ({ 7 }) wake ({ 1 }) us ({ 1 }) up ({ 1 }) at ({ 2 }) a ({ 4 }) quarter ({ 5 6 }) to ({ 3 5 }) one ({ }) , ({ 8 }) please ({ 9 }) . ({ 10 }) 
# 1.000000
nos prepara nuestra cuenta de la habitación tres cuatro uno , por favor .
NULL ({ 14 }) could ({ 2 }) you ({ 1 2 }) prepare ({ 2 }) our ({ 3 }) bill ({ 4 }) for ({ 5 }) room ({ 7 }) number ({ 6 8 }) three ({ 8 }) four ({ 9 }) one ({ 10 }) for ({ }) us ({ }) , ({ 11 12 }) please ({ 12 13 }) ? ({ 13 }) 
# 1.000000
reservamos una habitación doble , por favor .
NULL ({ 5 6 7 }) we ({ 1 }) booked ({ 1 }) a ({ 2 }) double ({ 4 }) room ({ 3 }) . ({ 8 }) 
# 1.000000
reservamos una habitación con aire acondicionado hasta pasado mañana , por favor .
NULL ({ 10 11 12 }) we ({ 1 }) booked ({ 1 }) a ({ 2 }) room ({ 3 }) with ({ 4 }) air ({ 5 }) conditioning ({ 6 }) until ({ 7 }) the ({ 8 }) day ({ 8 }) after ({ 8 }) tomorrow ({ 9 }) . ({ 13 }) 
# 1.000000
¿ le importaría que echara un vistazo a alguna habitación doble ?
NULL ({ }) would ({ 2 }) you ({ 1 2 }) mind ({ 2 3 }) me ({ 5 }) taking ({ 4 5 }) a ({ 6 }) look ({ 6 7 }) at ({ 8 }) a ({ 9 }) double ({ 11 }) room ({ 10 11 }) ? ({ 12 }) 
# 1.000000
por favor , pídame un taxi .
NULL ({ }) could ({ 4 }) you ({ 4 }) ask ({ 4 5 }) for ({ 4 }) a ({ }) taxi ({ 6 }) for ({ 7 }) me ({ }) , ({ 1 }) please ({ 2 3 }) ? ({ }) 
# 1.000000
por favor , ¿ podría llamarme a un taxi ?
NULL ({ 10 }) could ({ 5 }) you ({ 5 }) call ({ 6 7 }) a ({ 8 }) taxi ({ 8 9 }) for ({ 8 }) me ({ }) , ({ 1 }) please ({ 2 3 }) ? ({ 4 }) 
# 1.000000
¿ le importaría llevarme mis bolsas al autobús ?
NULL ({ 1 }) would ({ 2 }) you ({ 2 }) mind ({ 3 }) sending ({ 4 }) my ({ 5 }) bags ({ 6 }) to ({ 6 }) the ({ 7 }) bus ({ 7 8 }) ? ({ 9 }) 
# 1.000000
por favor , ¿ nos podrían despertar a las doce ?
NULL ({ 11 }) could ({ 6 }) you ({ 6 }) wake ({ 7 }) us ({ 5 }) up ({ 7 8 }) at ({ 9 }) twelve ({ 10 }) , ({ 1 }) please ({ 2 3 }) ? ({ 4 }) 
# 1.000000
la habitación está bien .
NULL ({ }) the ({ 1 }) room ({ 2 }) is ({ 3 }) all ({ 4 }) right ({ 3 4 }) . ({ 5 }) 
# 1.000000
¿ cómo ?
NULL ({ 1 }) pardon ({ 2 }) ? ({ 3 }) 
# 1.000000
por favor , ¿ qué precio tiene una habitación doble con pensión completa ?
NULL ({ }) what ({ 5 }) is ({ 5 }) the ({ 6 }) price ({ 6 7 }) for ({ 6 }) a ({ 8 }) double ({ 10 }) room ({ 9 }) with ({ 11 }) full ({ 12 13 }) board ({ 12 13 14 }) , ({ 1 }) please ({ 2 3 }) ? ({ 4 }) 
# 1.000000
¿ aceptan dinero en efectivo ?
NULL ({ }) do ({ 2 }) you ({ 1 3 }) accept ({ 2 3 }) cash ({ 4 5 }) ? ({ 6 }) 
# 1.000000
creo que existe un error .
NULL ({ }) i ({ 2 }) think ({ 1 }) that ({ 1 2 }) there ({ 3 }) is ({ 3 }) an ({ 4 5 }) error ({ 5 }) . ({ 6 }) 
# 1.000000
por favor , ¿ me podría pedir un taxi ?
NULL ({ 10 }) could ({ 6 }) you ({ 6 }) ask ({ 7 8 }) for ({ 7 }) a ({ }) taxi ({ 9 }) for ({ 9 }) me ({ 5 }) , ({ 1 3 }) please ({ 2 3 }) ? ({ 4 }) 
# 1.000000
nos tenemos que ir mañana .
NULL ({ }) we ({ 1 2 }) should ({ 2 3 }) leave ({ 4 }) tomorrow ({ 5 }) . ({ 6 }) 
# 1.000000
hice la reserva de una habitación con tele y teléfono a nombre de roberto arnau .
NULL ({ 2 13 }) i ({ 1 }) made ({ 1 }) a ({ 1 }) reservation ({ 3 }) for ({ 4 }) a ({ 5 }) room ({ 6 }) with ({ 7 }) a ({ 7 }) tv ({ 8 }) and ({ 9 }) a ({ 9 }) telephone ({ 10 }) for ({ 11 12 }) roberto ({ 12 14 }) arnau ({ 15 }) . ({ 16 }) 
# 1.000000
hemos hecho una reserva , por favor .
NULL ({ 5 6 7 }) we ({ 1 }) have ({ 2 }) made ({ 2 }) a ({ 3 }) reservation ({ 4 }) . ({ 8 }) 
# 1.000000
tenemos que irnos esta tarde .
NULL ({ }) we ({ 1 }) should ({ 3 }) leave ({ 2 3 }) this ({ 4 }) afternoon ({ 5 }) . ({ 6 }) 
# 1.000000
¿ nos pueden llevar nuestro equipaje al autobús ?
NULL ({ 1 }) can ({ 2 3 }) you ({ 3 }) send ({ 4 }) our ({ 5 }) luggage ({ 6 }) to ({ 6 }) the ({ 7 }) bus ({ 7 8 }) ? ({ 9 }) 
# 1.000000
por favor , deseo reservar una habitación .
NULL ({ }) i ({ 4 }) want ({ 4 }) to ({ 5 }) book ({ 5 }) a ({ 6 }) room ({ 7 }) , ({ 1 }) please ({ 2 3 }) . ({ 8 }) 
# 1.000000
¿ podrían ustedes despertarnos a las seis y media ?
NULL ({ 1 }) could ({ 2 }) you ({ 3 }) wake ({ 3 4 }) us ({ 4 }) up ({ 4 }) at ({ 5 6 }) half ({ 9 }) past ({ 8 9 }) six ({ 7 }) ? ({ 10 }) 
# 1.000000
hemos reservado una habitación doble .
NULL ({ }) we ({ 1 }) have ({ 2 }) booked ({ 2 }) a ({ 3 }) double ({ 5 }) room ({ 4 }) . ({ 6 }) 
# 1.000000
¿ pueden llamarme a un taxi ?
NULL ({ 1 }) can ({ 2 }) you ({ 2 }) call ({ 3 4 }) a ({ 5 }) taxi ({ 5 6 }) for ({ 6 }) me ({ }) , ({ }) please ({ }) ? ({ 7 }) 
# 1.000000
¿ me pueden dar ustedes la llave de la habitación ?
NULL ({ 1 }) can ({ 3 }) you ({ }) give ({ 4 5 }) me ({ 2 }) the ({ 6 }) key ({ 7 8 }) to ({ 7 }) the ({ 9 }) room ({ 10 }) ? ({ 11 }) 
# 1.000000
¿ hay teléfono y televisión en la habitación ?
NULL ({ 1 }) are ({ 2 }) there ({ 2 }) a ({ 3 }) telephone ({ 3 }) and ({ 4 }) a ({ 5 }) tv ({ 5 }) in ({ 6 }) the ({ 7 }) room ({ 8 }) ? ({ 9 }) 
# 1.000000
¿ podría ver alguna habitación , por favor ?
NULL ({ 1 }) could ({ 2 }) i ({ }) see ({ 3 4 }) a ({ 4 }) room ({ 5 }) , ({ 6 7 }) please ({ 7 8 }) ? ({ 9 }) 
# 1.000000
¿ están incluidos en el recibo todos los gastos ?
NULL ({ 7 10 }) are ({ 2 }) all ({ 3 }) expenses ({ 8 9 }) included ({ 5 6 }) in ({ 4 }) the ({ }) bill ({ }) ? ({ 1 }) 
# 1.000000
¿ les importaría darnos las llaves de la habitación ?
NULL ({ 1 }) would ({ 2 }) you ({ 3 }) mind ({ 3 }) giving ({ 4 }) us ({ 4 }) the ({ 5 }) keys ({ 5 6 }) to ({ 7 }) the ({ 8 }) room ({ 9 }) ? ({ 10 }) 
# 1.000000
tenemos reservadas dos habitaciones con teléfono , por favor .
NULL ({ 8 9 }) we ({ 1 }) have ({ 2 }) booked ({ 2 }) two ({ 3 }) rooms ({ 4 }) with ({ 5 }) a ({ 6 7 }) telephone ({ 6 }) . ({ 10 }) 
# 1.000000
quiero que me despierten mañana a las doce menos cuarto .
NULL ({ 6 }) i ({ 1 }) want ({ 1 }) you ({ 2 }) to ({ 2 4 }) wake ({ 4 }) me ({ 3 4 }) up ({ 4 }) tomorrow ({ 5 }) at ({ 7 }) a ({ 9 }) quarter ({ 9 10 }) to ({ 9 }) twelve ({ 8 }) . ({ 11 }) 
# 1.000000
lléveme mi equipaje a la estación .
NULL ({ }) send ({ 1 }) my ({ 2 }) luggage ({ 3 }) to ({ 4 }) the ({ 5 }) station ({ 6 }) . ({ 7 }) 
# 1.000000
¿ podríamos reservar dos habitaciones dobles para quince días ?
NULL ({ 1 }) could ({ 2 }) we ({ 2 }) book ({ 2 3 }) two ({ 4 }) double ({ 6 }) rooms ({ 5 }) for ({ 7 }) fifteen ({ 8 }) days ({ 9 }) ? ({ 10 }) 
# 1.000000
tenemos reservada una habitación hasta el próximo domingo a nombre del señor ángel viciano .
NULL ({ }) we ({ 1 }) have ({ 2 }) booked ({ 2 }) a ({ 3 }) room ({ 4 }) until ({ 5 }) next ({ 6 7 }) sunday ({ 8 }) for ({ 9 10 }) mr ({ 10 11 12 }) ángel ({ 13 }) viciano ({ 14 }) . ({ 15 }) 
# 1.000000
pienso que se ha producido un error en la cuenta .
NULL ({ }) i ({ 1 }) think ({ 1 }) that ({ 1 2 }) there ({ 1 }) has ({ 3 4 }) been ({ 4 5 }) an ({ 6 7 }) error ({ 7 }) in ({ 8 }) the ({ 9 }) bill ({ 10 }) . ({ 11 }) 
# 1.000000
quiero una habitación individual y tranquila para hoy , por favor .
NULL ({ }) i ({ 1 }) want ({ 1 }) a ({ 2 3 }) quiet ({ 5 6 }) , ({ 9 }) single ({ 4 }) room ({ }) for ({ 7 }) today ({ 8 }) , ({ 9 10 }) please ({ 11 }) . ({ 12 }) 
# 1.000000
existe un problema en la factura .
NULL ({ }) there ({ 1 }) is ({ 1 }) a ({ 2 }) problem ({ 2 3 }) in ({ 4 }) the ({ 5 }) bill ({ 6 }) . ({ 7 }) 
# 1.000000
voy a marcharme el viernes .
NULL ({ 3 }) i ({ 1 }) am ({ 1 }) leaving ({ 1 2 }) on ({ 4 }) friday ({ 5 }) . ({ 6 }) 
# 1.000000
mi nombre es marina varela .
NULL ({ 2 }) my ({ 1 }) name ({ }) is ({ 3 }) marina ({ 4 }) varela ({ 5 }) . ({ 6 }) 
# 1.000000
¿ tienen una habitación libre ?
NULL ({ 1 }) do ({ 2 }) you ({ 2 }) have ({ 2 }) a ({ 3 }) room ({ 4 }) available ({ 5 }) ? ({ 6 }) 
# 1.000000
por favor , he hecho una reserva .
NULL ({ 1 2 3 }) i ({ 4 }) have ({ 4 }) made ({ 5 }) a ({ 6 }) reservation ({ 7 }) . ({ 8 }) 
# 1.000000
desearía reservar una habitación para siete días .
NULL ({ }) i ({ 1 }) would ({ 1 }) like ({ 1 }) to ({ 2 }) book ({ 2 }) a ({ 3 }) room ({ 4 }) for ({ 5 }) seven ({ 6 }) days ({ 7 }) . ({ 8 }) 
# 1.000000
creo que se produjo un problema en la cuenta de la habitación siete ocho seis .
NULL ({ }) i ({ 2 }) think ({ 1 }) that ({ 1 2 }) there ({ 4 }) was ({ 3 4 }) a ({ 5 }) problem ({ 5 6 }) in ({ 7 }) the ({ 8 }) bill ({ 9 }) for ({ 10 }) room ({ 12 }) number ({ 11 13 }) seven ({ 13 }) eight ({ 14 }) six ({ 15 }) . ({ 16 }) 
# 1.000000
he hecho la reserva de una habitación tranquila doble con teléfono y televisión a nombre de rosario cabedo .
NULL ({ 5 16 }) i ({ 1 }) have ({ 2 }) made ({ 2 }) a ({ 2 }) reservation ({ 4 }) for ({ 3 }) a ({ 6 }) quiet ({ 8 }) , ({ 8 }) double ({ 9 }) room ({ 7 }) with ({ 10 }) a ({ 11 }) telephone ({ 11 }) and ({ 11 12 }) a ({ 11 }) tv ({ 13 }) for ({ 14 15 }) rosario ({ 15 17 }) cabedo ({ 18 }) . ({ 19 }) 
# 1.000000
quiero una habitación individual y tranquila hasta mañana .
NULL ({ }) i ({ 1 }) want ({ 1 }) a ({ 2 3 }) quiet ({ 5 6 }) , ({ 6 }) single ({ 4 }) room ({ }) until ({ 7 }) tomorrow ({ 8 }) . ({ 9 }) 
# 1.000000
por favor , tengo reservada una habitación .
NULL ({ 2 3 }) i ({ 1 4 }) have ({ 4 }) booked ({ 5 }) a ({ 6 }) room ({ 7 }) . ({ 8 }) 
# 1.000000
por favor , denme la llave de la habitación número nueve uno cero .
NULL ({ 8 }) please ({ 1 2 3 }) give ({ 4 }) me ({ 4 }) the ({ 5 }) key ({ 6 7 }) to ({ 6 }) room ({ 9 }) number ({ 10 }) nine ({ 11 }) one ({ 12 }) oh ({ 13 }) . ({ 14 }) 
# 1.000000
quisiera que me diese la llave de la habitación , por favor .
NULL ({ }) i ({ 2 }) would ({ 4 }) like ({ 1 4 }) you ({ 4 }) to ({ 4 }) give ({ 4 }) me ({ 3 4 }) the ({ 5 }) key ({ 6 }) to ({ 6 7 }) the ({ 8 }) room ({ 9 }) , ({ 10 11 }) please ({ 11 12 }) . ({ 13 }) 
# 1.000000
nos tenemos que ir el día veintisiete a las nueve en punto .
NULL ({ }) we ({ 2 }) should ({ 1 4 }) leave ({ 3 4 }) on ({ 4 5 }) the ({ 5 }) twenty ({ 5 7 }) - ({ 7 }) seventh ({ 6 7 }) at ({ 8 9 }) nine ({ 10 }) o ({ 11 12 }) ' ({ 12 }) clock ({ 12 }) . ({ 13 }) 
# 1.000000
¿ están anotados en el recibo los extras ?
NULL ({ 7 8 9 }) are ({ 2 }) extras ({ 3 }) included ({ 3 }) in ({ 4 }) the ({ 5 }) bill ({ 6 }) ? ({ 1 }) 
# 1.000000
¿ hay televisión y aire acondicionado en la habitación ?
NULL ({ 1 }) are ({ 2 }) there ({ 2 }) a ({ 3 }) tv ({ 3 }) and ({ 4 }) air ({ 5 }) conditioning ({ 6 }) in ({ 7 }) the ({ 8 }) room ({ 9 }) ? ({ 10 }) 
# 1.000000
hemos hecho una reserva , por favor .
NULL ({ 5 6 7 }) we ({ 1 }) have ({ 2 }) made ({ 2 }) a ({ 3 }) reservation ({ 4 }) . ({ 8 }) 
# 1.000000
por favor , tengo la reserva de una habitación tranquila doble con vistas a la ciudad y baño a nombre de ricardo salsas .
NULL ({ 5 7 14 19 }) i ({ 4 }) have ({ 4 }) a ({ 8 }) reservation ({ 6 }) for ({ 20 }) a ({ }) quiet ({ 10 }) , ({ 1 2 3 }) double ({ 11 }) room ({ 9 }) with ({ 12 }) a ({ 12 }) view ({ 13 }) of ({ 21 }) the ({ 15 }) town ({ 16 }) and ({ 16 17 }) a ({ 17 }) bath ({ 18 }) for ({ }) ricardo ({ 22 }) salsas ({ 23 }) . ({ 24 }) 
# 1.000000
¿ podríamos reservar dos habitaciones ?
NULL ({ 1 }) could ({ 2 }) we ({ 2 }) book ({ 2 3 }) two ({ 4 }) rooms ({ 5 }) ? ({ 6 }) 
# 1.000000
¿ hay televisión en mi habitación ?
NULL ({ 1 }) is ({ 2 }) there ({ 2 }) a ({ 3 }) tv ({ 3 }) in ({ 4 }) my ({ 5 }) room ({ 6 }) ? ({ 7 }) 
# 1.000000
¿ podrían hacer nuestra cuenta ?, por favor .
NULL ({ 9 }) could ({ 2 }) you ({ 2 }) make ({ 3 }) out ({ 3 }) our ({ 4 }) bill ({ 5 6 }) , ({ 7 }) please ({ 8 }) ? ({ 1 }) 
# 1.000000
por favor , lleve mi bolsa de viaje a mi habitación .
NULL ({ }) please ({ 1 2 3 }) send ({ 4 }) my ({ 4 5 }) travel ({ 7 8 }) bag ({ 6 }) to ({ 9 }) my ({ 10 }) room ({ 11 }) . ({ 12 }) 
# 1.000000
¿ nos pueden llevar nuestro equipaje al taxi ?
NULL ({ 1 }) can ({ 2 3 }) you ({ 3 }) send ({ 4 }) our ({ 5 }) luggage ({ 6 }) to ({ 6 }) the ({ 7 }) taxi ({ 7 8 }) ? ({ 9 }) 
# 1.000000
¿ hay aire acondicionado en mi habitación , por favor ?
NULL ({ 1 }) is ({ 2 }) there ({ 2 }) air ({ 3 }) conditioning ({ 4 }) in ({ 5 }) my ({ 6 }) room ({ 7 }) , ({ 8 9 }) please ({ 9 10 }) ? ({ 11 }) 
# 1.000000
he hecho la reserva de una habitación individual a nombre de dulce gumbau .
NULL ({ 3 11 }) i ({ 1 }) have ({ 1 }) made ({ 2 }) a ({ 4 }) reservation ({ 4 }) for ({ 5 }) a ({ 6 }) single ({ 8 }) room ({ 7 }) for ({ 9 10 }) dulce ({ 10 12 }) gumbau ({ 13 }) . ({ 14 }) 
# 1.000000
quisiéramos una habitación doble y tranquila .
NULL ({ }) we ({ 1 }) want ({ 1 }) a ({ 2 5 }) quiet ({ 5 6 }) , ({ 6 }) double ({ 4 }) room ({ 3 }) . ({ 7 }) 
# 1.000000
tengo la reserva de una habitación a nombre de francisco botella .
NULL ({ 2 9 }) i ({ 1 }) have ({ 1 }) a ({ 3 }) reservation ({ 3 }) for ({ 4 }) a ({ 5 }) room ({ 6 }) for ({ 7 8 }) francisco ({ 8 10 }) botella ({ 11 }) . ({ 12 }) 
# 1.000000
me voy a ir el jueves por la mañana .
NULL ({ 7 }) i ({ 2 }) am ({ 1 2 }) leaving ({ 2 3 }) on ({ 4 5 }) thursday ({ 6 }) morning ({ 8 9 }) . ({ 10 }) 
# 1.000000
súbanos nuestros bultos a la tres cuatro cero , por favor .
NULL ({ }) send ({ 2 }) up ({ 1 2 }) our ({ 2 }) luggage ({ 2 3 }) to ({ 4 }) room ({ 5 }) number ({ 5 6 }) three ({ 6 }) four ({ 7 }) oh ({ 8 }) , ({ 9 10 }) please ({ 11 }) . ({ 12 }) 
# 1.000000
por favor , desearíamos que nos diera las llaves de la habitación cuatro tres .
NULL ({ }) we ({ 4 }) would ({ 4 }) like ({ 4 5 }) you ({ }) to ({ 7 }) give ({ 7 }) us ({ 6 }) the ({ 10 11 }) keys ({ 7 8 9 }) to ({ 9 }) room ({ 12 }) number ({ 13 }) four ({ 13 }) three ({ 14 }) , ({ 1 }) please ({ 1 2 3 }) . ({ 15 }) 
# 1.000000
¿ puedo pagar la cuenta en efectivo ?
NULL ({ 1 }) can ({ 2 }) i ({ 3 }) pay ({ 2 3 }) the ({ 4 }) bill ({ 5 }) in ({ 6 }) cash ({ 7 }) ? ({ 8 }) 
# 1.000000
por favor , hemos reservado una habitación doble .
NULL ({ 1 3 }) we ({ 4 }) have ({ 5 }) booked ({ 5 }) a ({ 6 }) double ({ 8 }) room ({ 2 7 8 }) . ({ 9 }) 
# 1.000000
¿ podríamos ver alguna habitación doble ?
NULL ({ 1 }) could ({ 2 }) we ({ 2 }) see ({ 2 3 4 }) a ({ 4 }) double ({ 6 }) room ({ 5 6 }) ? ({ 7 }) 
# 1.000000
¿ a qué día estamos ?
NULL ({ 1 2 }) what ({ 3 }) is ({ 3 }) the ({ 4 }) date ({ 4 5 }) ? ({ 6 }) 
# 1.000000
tengo una reserva .
NULL ({ }) i ({ 1 }) have ({ 1 }) a ({ 2 }) reservation ({ 3 }) . ({ 4 }) 
# 1.000000
¿ tenemos que firmar alguna hoja de registro ?
NULL ({ 1 }) should ({ 2 }) we ({ 2 }) sign ({ 3 4 }) a ({ 5 }) registration ({ 5 6 7 }) form ({ 6 8 }) ? ({ 9 }) 
# 1.000000
¿ tienen libre una habitación individual ?
NULL ({ 1 }) do ({ 2 3 }) you ({ 2 }) have ({ 2 }) a ({ 4 5 }) single ({ 6 }) room ({ }) available ({ }) ? ({ 7 }) 
# 1.000000
por favor , ¿ cuánto vale por día una habitación individual ?
NULL ({ 12 }) how ({ 5 }) much ({ 5 }) is ({ 6 }) a ({ 9 }) single ({ 11 }) room ({ 10 }) per ({ 6 7 8 }) day ({ 8 }) , ({ 1 3 }) please ({ 2 3 }) ? ({ 4 }) 
# 1.000000
por favor , queremos reservar una habitación con aire acondicionado .
NULL ({ 3 }) we ({ 4 }) want ({ 4 }) to ({ 5 }) book ({ 5 }) a ({ 6 }) room ({ 7 }) with ({ 8 }) air ({ 9 }) conditioning ({ 10 }) , ({ 1 }) please ({ 2 }) . ({ 11 }) 
# 1.000000
por favor , queremos cambiar la habitación .
NULL ({ 7 }) we ({ 4 }) want ({ 4 }) to ({ 5 6 }) change ({ 5 }) rooms ({ 5 }) , ({ 1 }) please ({ 2 3 }) . ({ 8 }) 
# 1.000000
tenemos reservada una habitación doble .
NULL ({ }) we ({ 1 }) have ({ 2 }) booked ({ 2 }) a ({ 3 }) double ({ 5 }) room ({ 4 }) . ({ 6 }) 
# 1.000000
tengo reservada una habitación tranquila con televisión y una buena vista de la montaña a nombre de rosario cantero .
NULL ({ }) i ({ 1 }) have ({ 1 2 }) booked ({ 2 }) a ({ 3 }) quiet ({ 5 }) room ({ 4 }) with ({ 6 }) a ({ 9 }) tv ({ 7 }) and ({ 8 }) a ({ }) good ({ 10 11 }) view ({ 11 12 }) of ({ 13 14 }) the ({ 13 }) mountain ({ 14 }) for ({ 15 16 }) rosario ({ 16 17 18 }) cantero ({ 19 }) . ({ 20 }) 
# 1.000000
¿ podría reservar una habitación con aire acondicionado para esta semana ?
NULL ({ 1 }) could ({ 2 }) i ({ }) book ({ 3 }) a ({ 4 }) room ({ 5 }) with ({ 6 }) air ({ 7 }) conditioning ({ 8 }) for ({ 9 }) this ({ 10 }) week ({ 11 }) ? ({ 12 }) 
# 1.000000
nos marchamos hoy mismo a las diez y cuarto de la noche .
NULL ({ }) we ({ 2 }) are ({ 1 2 }) leaving ({ 2 }) today ({ 2 3 4 }) at ({ 5 6 }) a ({ 8 }) quarter ({ 9 }) past ({ 8 9 }) ten ({ 7 }) in ({ 10 }) the ({ 11 }) evening ({ 12 }) . ({ 13 }) 
# 1.000000
en la habitación hace demasiado calor .
NULL ({ }) it ({ 4 }) is ({ 5 }) too ({ 5 }) hot ({ 6 }) in ({ 1 }) the ({ 2 }) room ({ 3 }) . ({ 7 }) 
# 1.000000
tengo que irme hoy a las once y media de la mañana .
NULL ({ }) i ({ 1 }) should ({ 1 3 }) leave ({ 2 3 }) today ({ 4 }) at ({ 5 6 }) half ({ 9 }) past ({ 8 9 }) eleven ({ 7 }) in ({ 10 }) the ({ 11 }) morning ({ 12 }) . ({ 13 }) 
# 1.000000
tengo reservada una habitación doble , por favor .
NULL ({ 6 7 8 }) i ({ 1 }) have ({ 1 }) booked ({ 2 }) a ({ 3 }) double ({ 5 }) room ({ 4 }) . ({ 9 }) 
# 1.000000
la habitación está bien .
NULL ({ }) the ({ 1 }) room ({ 2 }) is ({ 3 }) all ({ 4 }) right ({ 3 4 }) . ({ 5 }) 
# 1.000000
por favor , ¿ nos podría dar las llaves de la habitación ?
NULL ({ 13 }) could ({ 6 }) you ({ 6 }) give ({ 7 }) us ({ 5 7 }) the ({ 9 10 }) keys ({ 8 9 }) to ({ 9 }) the ({ 11 }) room ({ 12 }) , ({ 1 }) please ({ 2 3 }) ? ({ 4 }) 
# 1.000000
¿ tiene teléfono ?
NULL ({ 1 }) does ({ 2 }) it ({ 2 }) have ({ 2 }) a ({ 3 }) telephone ({ 3 }) ? ({ 4 }) 
# 1.000000
voy a marcharme hoy mismo por la tarde .
NULL ({ 3 6 }) i ({ 1 }) am ({ 1 }) leaving ({ 1 2 }) today ({ 4 5 }) in ({ 5 }) the ({ 7 }) afternoon ({ 8 }) . ({ 9 }) 
# 1.000000
tengo que marcharme el día treinta de septiembre .
NULL ({ 6 }) i ({ 1 2 }) should ({ 3 }) leave ({ 2 3 }) on ({ 4 }) september ({ 5 }) the ({ 7 }) thirtieth ({ 8 }) . ({ 9 }) 
# 1.000000
déme la llave de la habitación , por favor .
NULL ({ }) give ({ 1 }) me ({ 1 }) the ({ 2 }) key ({ 3 }) to ({ 4 }) the ({ 5 }) room ({ 6 }) , ({ 7 8 }) please ({ 8 9 }) . ({ 10 }) 
# 1.000000
¿ cuánto cuesta una habitación individual , por favor ?
NULL ({ 1 }) how ({ 2 }) much ({ 2 }) does ({ 3 }) a ({ 4 }) single ({ 6 }) room ({ 5 }) cost ({ }) , ({ 7 8 }) please ({ 8 9 }) ? ({ 10 }) 
# 1.000000
¿ podríamos ver una habitación , por favor ?
NULL ({ 1 }) could ({ 2 }) we ({ 2 }) see ({ 2 3 }) a ({ 4 }) room ({ 5 }) , ({ 6 7 }) please ({ 7 8 }) ? ({ 9 }) 
# 1.000000
por favor , me gustaría cambiarme de habitación .
NULL ({ }) i ({ 4 }) would ({ 5 }) like ({ 5 }) to ({ 5 }) change ({ 6 7 8 }) rooms ({ 6 }) , ({ 1 }) please ({ 2 3 }) . ({ 9 }) 
# 1.000000
¿ tiene libre una habitación doble ?
NULL ({ 1 }) do ({ 2 3 }) you ({ 2 }) have ({ 2 }) a ({ 4 5 }) double ({ 6 }) room ({ }) available ({ }) ? ({ 7 }) 
# 1.000000
¿ les importaría llevar nuestros bultos a nuestra habitación ?
NULL ({ 1 }) would ({ 2 }) you ({ 3 }) mind ({ 3 }) sending ({ 4 }) our ({ 5 }) luggage ({ 6 }) to ({ 7 }) our ({ 8 }) room ({ 9 }) ? ({ 10 }) 
# 1.000000
reservamos una habitación individual para una noche a nombre de micaela carpio .
NULL ({ 10 }) we ({ 1 }) booked ({ 1 }) a ({ 2 }) single ({ 4 }) room ({ 3 4 }) for ({ 5 }) a ({ 6 }) night ({ 7 }) for ({ 8 9 }) micaela ({ 9 11 }) carpio ({ 12 }) . ({ 13 }) 
# 1.000000
¿ nos querrían llamar a un taxi ?
NULL ({ 1 }) would ({ 3 }) you ({ 3 }) call ({ 4 5 }) a ({ 6 }) taxi ({ 6 7 }) for ({ 7 }) us ({ 2 }) , ({ }) please ({ }) ? ({ 8 }) 
# 1.000000
¿ podrían despertarme a las dos ?
NULL ({ 1 }) could ({ 2 }) you ({ 2 }) wake ({ 3 }) me ({ 3 }) up ({ 4 }) at ({ 5 }) two ({ 6 }) ? ({ 7 }) 
# 1.000000
¿ nos podría dar la llave de mi habitación , por favor ?
NULL ({ 7 }) could ({ 3 }) you ({ 1 3 }) give ({ 4 }) us ({ 2 4 }) the ({ 5 }) key ({ 6 }) to ({ 6 }) my ({ 8 }) room ({ 9 }) , ({ 10 11 }) please ({ 12 }) ? ({ 13 }) 
# 1.000000
¿ hay habitaciones libres ?
NULL ({ 1 }) are ({ 2 }) there ({ 2 }) any ({ 4 }) rooms ({ 3 }) available ({ }) ? ({ 5 }) 
# 1.000000
por favor , lleven mis bolsas a la habitación cero veintinueve .
NULL ({ 1 }) please ({ 2 3 }) send ({ 4 }) my ({ 5 }) bags ({ 5 6 }) to ({ 7 }) room ({ 9 }) number ({ 8 10 }) oh ({ 10 }) two ({ 11 }) nine ({ 11 }) . ({ 12 }) 
# 1.000000
me gustaría cambiar mi habitación .
NULL ({ }) i ({ 1 }) would ({ 2 }) like ({ 2 }) to ({ 3 }) change ({ 3 4 5 }) rooms ({ 3 }) . ({ 6 }) 
# 1.000000
por favor , nos hace la cuenta de la habitación cuatrocientos diecinueve .
NULL ({ 8 9 }) could ({ }) you ({ }) make ({ 5 }) out ({ 5 }) the ({ 6 }) bill ({ 7 }) for ({ 7 }) room ({ 10 }) number ({ 11 }) four ({ 11 }) one ({ 12 }) nine ({ 12 }) for ({ 12 13 }) us ({ 4 }) , ({ 1 2 3 }) please ({ 2 }) ? ({ 2 }) 
# 1.000000
¿ le importaría bajar nuestro equipaje a la habitación , por favor ?
NULL ({ 1 }) would ({ 2 }) you ({ 2 }) mind ({ 3 }) sending ({ 4 }) down ({ 4 }) our ({ 5 }) luggage ({ 6 }) to ({ 7 }) the ({ 8 }) room ({ 9 }) , ({ 10 11 }) please ({ 12 }) ? ({ 13 }) 
# 1.000000
¿ me podrían subir el equipaje al coche ?
NULL ({ 1 }) could ({ 2 3 }) you ({ 3 }) put ({ 4 5 }) the ({ 5 }) luggage ({ 6 }) in ({ }) the ({ 7 }) car ({ 7 8 }) ? ({ 9 }) 
# 1.000000
¿ está apuntado el recibo del teléfono ?
NULL ({ 8 }) is ({ 2 }) the ({ 4 }) phone ({ 2 3 4 5 6 7 }) bill ({ 5 }) included ({ 3 }) ? ({ 1 }) 
# 1.000000
¿ cuánto cuesta una habitación doble , por favor ?
NULL ({ 1 }) how ({ 2 }) much ({ 2 }) does ({ 3 }) a ({ 4 }) double ({ 6 }) room ({ 5 }) cost ({ }) , ({ 7 8 }) please ({ 8 9 }) ? ({ 10 }) 
# 1.000000
hemos reservado una habitación doble .
NULL ({ }) we ({ 1 }) have ({ 2 }) booked ({ 2 }) a ({ 3 }) double ({ 5 }) room ({ 4 }) . ({ 6 }) 
# 1.000000
despiértenme mañana a las cinco .
NULL ({ }) wake ({ 1 }) me ({ 1 }) up ({ 1 }) tomorrow ({ 2 }) at ({ 3 4 }) five ({ 5 }) . ({ 6 }) 
# 1.000000
¿ cuánto cuesta por semana una habitación individual incluyendo desayuno ?
NULL ({ }) how ({ 2 }) much ({ 2 }) does ({ 3 }) a ({ 6 }) single ({ 8 }) room ({ 7 }) including ({ 9 }) breakfast ({ 10 }) cost ({ 11 }) per ({ 4 5 }) week ({ 5 }) ? ({ 1 }) 
# 1.000000
por favor , dénos la llave de la habitación .
NULL ({ }) please ({ 1 2 3 }) give ({ 4 }) us ({ 4 }) the ({ 5 }) key ({ 6 7 }) to ({ 7 }) the ({ 8 }) room ({ 9 }) . ({ 10 }) 
# 1.000000
me voy el dieciséis de septiembre a las doce menos cuarto de la mañana .
NULL ({ 5 }) i ({ 2 }) leave ({ 1 }) on ({ 3 6 }) september ({ 6 }) the ({ }) sixteenth ({ 4 }) at ({ 7 8 }) a ({ 10 }) quarter ({ 10 11 }) to ({ 10 }) twelve ({ 9 }) in ({ 12 }) the ({ 13 }) morning ({ 14 }) . ({ 15 }) 
# 1.000000
he reservado una habitación tranquila doble a nombre de paloma montero .
NULL ({ 9 }) i ({ 1 }) have ({ 1 2 }) booked ({ 2 }) a ({ 3 }) quiet ({ 5 }) , ({ 5 }) double ({ 6 }) room ({ 4 }) for ({ 7 8 }) paloma ({ 8 10 }) montero ({ 11 }) . ({ 12 }) 
# 1.000000
me parece que se produjo una equivocación en la cuenta .
NULL ({ }) i ({ 3 }) think ({ 1 2 }) that ({ 2 3 4 }) there ({ 5 }) was ({ 4 5 }) a ({ 6 }) mistake ({ 7 }) in ({ 8 }) the ({ 9 }) bill ({ 10 }) . ({ 11 }) 
# 1.000000
por favor , ¿ podría repasar la cuenta ?
NULL ({ 9 }) could ({ 5 }) you ({ 5 }) check ({ 6 }) the ({ 7 }) bill ({ 8 }) , ({ 1 }) please ({ 2 3 }) ? ({ 4 }) 
# 1.000000
por favor , ¿ me podría bajar el equipaje a la habitación ?
NULL ({ 13 }) could ({ 5 6 }) you ({ 6 }) send ({ 7 }) down ({ 7 }) my ({ 7 }) luggage ({ 8 9 }) to ({ 9 10 }) the ({ 11 }) room ({ 12 }) , ({ 1 }) please ({ 2 3 }) ? ({ 4 }) 
# 1.000000
quiero reservar una habitación .
NULL ({ }) i ({ 1 }) want ({ 1 }) to ({ 2 }) book ({ 2 }) a ({ 3 }) room ({ 4 }) . ({ 5 }) 
# 1.000000
la habitación es muy cara .
NULL ({ }) the ({ 1 }) room ({ 2 }) is ({ 3 }) very ({ 3 4 }) expensive ({ 5 }) . ({ 6 }) 
# 1.000000
voy a irme mañana a las tres menos cuarto de la tarde .
NULL ({ }) i ({ 1 }) am ({ 1 }) leaving ({ 1 2 }) tomorrow ({ 3 4 }) at ({ 5 6 }) a ({ 8 }) quarter ({ 8 9 }) to ({ 8 }) three ({ 7 }) in ({ 10 }) the ({ 11 }) afternoon ({ 12 }) . ({ 13 }) 
# 1.000000
se produjo una equivocación en mi cuenta .
NULL ({ }) there ({ 2 }) was ({ 1 2 }) a ({ 3 }) mistake ({ 4 }) in ({ 5 }) my ({ 6 }) bill ({ 7 }) . ({ 8 }) 
# 1.000000
por favor , háganos la cuenta de la habitación novecientos uno .
NULL ({ 7 8 }) could ({ }) you ({ 4 }) make ({ 4 }) out ({ 4 }) the ({ 5 }) bill ({ 6 }) for ({ 6 }) room ({ 9 }) number ({ 10 }) nine ({ 10 }) oh ({ 10 }) one ({ 11 }) for ({ 12 }) us ({ }) , ({ 1 3 }) please ({ 2 3 }) ? ({ }) 
# 1.000000
deseo una habitación que tenga teléfono , televisión y ducha , por favor .
NULL ({ 4 }) i ({ 1 }) want ({ 1 }) a ({ 2 }) room ({ 3 }) with ({ 5 }) a ({ 5 }) telephone ({ 6 }) , ({ 7 }) a ({ 7 8 }) tv ({ 8 }) and ({ 9 }) a ({ 10 }) shower ({ 10 }) , ({ 11 12 }) please ({ 13 }) . ({ 14 }) 
# 1.000000
¿ le importaría que echara un vistazo a alguna habitación ?
NULL ({ 1 }) would ({ 2 3 }) you ({ 2 }) mind ({ 3 }) me ({ 5 }) taking ({ 4 5 }) a ({ 6 }) look ({ 5 6 7 }) at ({ 8 }) a ({ 9 }) room ({ 10 }) ? ({ 11 }) 
# 1.000000
¿ me podría despertar mañana a las doce , por favor ?
NULL ({ }) could ({ 3 }) you ({ 1 3 }) wake ({ 4 }) me ({ 2 }) up ({ }) tomorrow ({ 5 }) at ({ 6 7 }) twelve ({ 8 }) , ({ 9 10 }) please ({ 10 11 }) ? ({ 12 }) 
# 1.000000
súbanme mis maletas a la habitación número dos ocho , por favor .
NULL ({ 5 }) send ({ 1 }) up ({ 1 }) my ({ 2 }) suitcases ({ 3 }) to ({ 4 }) room ({ 6 }) number ({ 7 }) two ({ 8 }) eight ({ 9 }) , ({ 10 11 }) please ({ 12 }) . ({ 13 }) 
# 1.000000
tengo reservada una habitación .
NULL ({ }) i ({ 1 }) have ({ 1 }) booked ({ 2 }) a ({ 3 }) room ({ 4 }) . ({ 5 }) 
# 1.000000
me gustaría reservar una habitación individual y tranquila con teléfono hasta pasado mañana , por favor .
NULL ({ }) i ({ 1 }) would ({ 2 }) like ({ 2 }) to ({ 2 }) book ({ 3 }) a ({ 4 }) quiet ({ 7 8 }) , ({ 8 }) single ({ 6 }) room ({ 5 }) with ({ 9 }) a ({ 10 }) telephone ({ 10 }) until ({ 11 }) the ({ 12 }) day ({ 12 }) after ({ 12 }) tomorrow ({ 13 }) , ({ 14 15 }) please ({ 16 }) . ({ 17 }) 
# 1.000000
¿ me podrían hacer la cuenta ?
NULL ({ 7 }) could ({ 3 }) you ({ 3 }) make ({ 4 }) out ({ 4 }) the ({ 5 }) bill ({ 6 }) for ({ 6 }) me ({ 2 }) , ({ 2 }) please ({ 1 }) ? ({ 1 }) 
# 1.000000
la habitación es muy fría .
NULL ({ }) the ({ 1 }) room ({ 2 }) is ({ 3 }) very ({ 3 4 }) cold ({ 5 }) . ({ 6 }) 
# 1.000000
suban nuestro equipaje a nuestra habitación .
NULL ({ }) send ({ 1 }) up ({ 1 }) our ({ 2 }) luggage ({ 3 }) to ({ 4 }) our ({ 5 }) room ({ 6 }) . ({ 7 }) 
# 1.000000
por favor , ¿ me querrían preparar la factura ?
NULL ({ 10 }) would ({ 6 }) you ({ 6 }) prepare ({ 7 }) the ({ 8 }) bill ({ 9 }) for ({ 9 }) me ({ 5 }) , ({ 1 3 }) please ({ 2 3 }) ? ({ 4 }) 
# 1.000000
por favor , ¿ cuánto vale por día una habitación doble ?
NULL ({ 12 }) how ({ 5 }) much ({ 5 }) is ({ 6 }) a ({ 9 }) double ({ 11 }) room ({ 10 }) per ({ 6 7 8 }) day ({ 8 }) , ({ 1 3 }) please ({ 2 3 }) ? ({ 4 }) 
# 1.000000
¿ cuánto vale una habitación individual por semana ?
NULL ({ 1 }) how ({ 2 }) much ({ 2 3 }) is ({ 3 }) a ({ 4 }) single ({ 6 }) room ({ 5 }) per ({ 7 8 }) week ({ 8 }) ? ({ 9 }) 
# 1.000000
voy a marcharme .
NULL ({ 3 }) i ({ 1 }) am ({ 1 }) leaving ({ 1 2 }) . ({ 4 }) 
# 1.000000
por favor , ¿ tengo que rellenar alguna hoja de registro ?
NULL ({ 12 }) should ({ 5 6 }) i ({ 6 }) fill ({ 6 7 }) in ({ 7 }) a ({ 8 }) registration ({ 8 9 10 }) form ({ 11 }) , ({ 1 3 }) please ({ 2 3 }) ? ({ 4 }) 
# 1.000000
quiero una habitación con aire acondicionado para hoy .
NULL ({ }) i ({ 1 }) want ({ 1 }) a ({ 2 }) room ({ 3 }) with ({ 4 }) air ({ 5 }) conditioning ({ 6 }) for ({ 7 }) today ({ 8 }) . ({ 9 }) 
# 1.000000
¿ le importaría subir mis bolsas de viaje al autobús ?
NULL ({ 1 }) would ({ 2 3 }) you ({ 2 }) mind ({ 3 }) putting ({ 4 }) my ({ 5 }) travel ({ 7 8 }) bags ({ 5 6 }) on ({ }) the ({ 9 }) bus ({ 9 10 }) ? ({ 11 }) 
# 1.000000
¿ le importaría mostrarme otra habitación ?
NULL ({ 1 }) would ({ 2 }) you ({ 2 }) mind ({ 3 }) showing ({ 4 }) me ({ 4 }) another ({ 5 }) room ({ 6 }) ? ({ 7 }) 
# 1.000000
¿ querrían hacernos la factura ?, por favor .
NULL ({ 9 }) would ({ 2 }) you ({ 2 }) make ({ 3 }) out ({ 3 }) the ({ 4 }) bill ({ 5 }) for ({ 5 }) us ({ 6 }) , ({ 7 }) please ({ 8 }) ? ({ 1 }) 
# 1.000000
he de marcharme el viernes diecinueve de abril a las nueve de la noche .
NULL ({ 6 }) i ({ 1 }) should ({ 1 3 }) leave ({ 2 3 }) on ({ 4 }) friday ({ 5 }) april ({ }) the ({ 7 }) nineteenth ({ 8 }) at ({ 9 10 }) nine ({ 11 }) in ({ 12 }) the ({ 13 }) evening ({ 14 }) . ({ 15 }) 
# 1.000000
por favor , haga la factura de la habitación nueve catorce .
NULL ({ }) please ({ 1 2 3 }) make ({ 4 }) out ({ 4 }) the ({ 5 }) bill ({ 6 }) for ({ 6 7 }) room ({ 9 }) number ({ 8 10 }) nine ({ 10 }) one ({ 11 }) four ({ 11 }) . ({ 12 }) 
# 1.000000
por favor , ¿ podría despertarme a la una en punto ?
NULL ({ 12 }) could ({ 5 }) you ({ 5 }) wake ({ 6 }) me ({ 6 }) up ({ 6 7 }) at ({ 7 }) one ({ 8 9 }) o ({ 11 }) ' ({ 10 11 }) clock ({ 11 }) , ({ 1 3 }) please ({ 2 3 }) ? ({ 4 }) 
# 1.000000
por favor , ¿ nos podrían hacer la cuenta ?
NULL ({ 10 }) could ({ 6 }) you ({ 6 }) make ({ 7 }) out ({ 7 }) the ({ 8 }) bill ({ 9 }) for ({ 9 }) us ({ 5 }) , ({ 1 3 }) please ({ 2 3 }) ? ({ 4 }) 
# 1.000000
¿ podría hacer la factura ?
NULL ({ 1 }) could ({ 2 }) you ({ 2 }) make ({ 3 }) out ({ 3 }) the ({ 4 }) bill ({ 5 }) , ({ }) please ({ }) ? ({ 6 }) 
# 1.000000
por favor , me detalla la cuenta .
NULL ({ 1 }) could ({ }) you ({ }) explain ({ 5 }) the ({ 6 }) bill ({ 7 }) for ({ 7 8 }) me ({ 4 }) , ({ 3 }) please ({ 2 3 }) ? ({ }) 
# 1.000000
he de irme hoy a las ocho y cuarto de la mañana .
NULL ({ }) i ({ 1 }) should ({ 1 3 }) leave ({ 2 3 }) today ({ 4 }) at ({ 5 6 }) a ({ 8 }) quarter ({ 9 }) past ({ 8 9 }) eight ({ 7 }) in ({ 10 }) the ({ 11 }) morning ({ 12 }) . ({ 13 }) 
# 1.000000
por favor , quiero que nos bajen los bultos a la habitación .
NULL ({ }) i ({ 4 }) want ({ 4 }) you ({ 6 }) to ({ 5 6 }) send ({ }) down ({ 7 }) our ({ 7 }) luggage ({ 8 9 }) to ({ 9 10 }) the ({ 11 }) room ({ 12 }) , ({ 1 }) please ({ 2 3 }) . ({ 13 }) 
# 1.000000
¿ hay alguna habitación tranquila libre ?
NULL ({ 1 }) is ({ 2 }) there ({ 2 }) a ({ 3 }) quiet ({ 5 }) room ({ 4 }) available ({ 6 }) ? ({ 7 }) 
# 1.000000
creo que hay un problema .
NULL ({ }) i ({ 2 }) think ({ 1 }) that ({ 1 2 }) there ({ 3 }) is ({ 3 }) a ({ 4 }) problem ({ 4 5 }) . ({ 6 }) 
# 1.000000
deseo que me suban los bultos a mi habitación .
NULL ({ }) i ({ 1 }) want ({ 1 }) you ({ 3 }) to ({ 2 4 }) send ({ 4 }) up ({ 4 }) my ({ 5 }) luggage ({ 5 6 }) to ({ 7 }) my ({ 8 }) room ({ 9 }) . ({ 10 }) 
# 1.000000
¿ me querrían preparar la cuenta ?
NULL ({ 1 }) would ({ 3 }) you ({ 3 }) prepare ({ 4 }) the ({ 5 }) bill ({ 6 }) for ({ 6 }) me ({ 2 }) , ({ }) please ({ }) ? ({ 7 }) 
# 1.000000
por favor , ¿ les importaría darme la llave de la habitación quinientos veintidós ?
NULL ({ 10 11 15 }) would ({ 5 }) you ({ 6 }) mind ({ 6 }) giving ({ 7 }) me ({ 7 }) the ({ 8 }) key ({ 9 }) to ({ 9 }) room ({ 12 }) number ({ 13 }) five ({ 13 14 }) two ({ 14 }) two ({ 14 }) , ({ 1 }) please ({ 1 2 3 }) ? ({ 4 }) 
# 1.000000
pienso que existe una equivocación en la cuenta de la habitación setecientos diecinueve .
NULL ({ }) i ({ 2 }) think ({ 1 }) that ({ 1 2 3 }) there ({ 3 }) is ({ 3 }) a ({ 4 }) mistake ({ 5 }) in ({ 6 }) the ({ 7 }) bill ({ 8 }) for ({ 9 }) room ({ 11 }) number ({ 10 12 }) seven ({ 12 }) one ({ 13 }) nine ({ 13 }) . ({ 14 }) 
# 1.000000
creo que se ha equivocado en nuestra cuenta de la habitación quinientos quince .
NULL ({ }) i ({ 2 }) think ({ 1 }) that ({ 1 2 }) a ({ }) mistake ({ 5 }) has ({ 3 4 }) been ({ 4 5 }) made ({ 5 }) in ({ 6 }) our ({ 7 }) bill ({ 8 }) for ({ 9 }) room ({ 11 }) number ({ 10 12 }) five ({ 12 }) one ({ 13 }) five ({ 13 }) . ({ 14 }) 
# 1.000000
quisiera que nos diesen la llave de mi habitación .
NULL ({ }) i ({ 1 2 }) would ({ }) like ({ }) you ({ }) to ({ 4 }) give ({ 4 }) us ({ 3 }) the ({ 5 }) key ({ 6 }) to ({ 7 }) my ({ 8 }) room ({ 9 }) . ({ 10 }) 
# 1.000000
¿ le importaría cambiarme de habitación ?
NULL ({ 1 }) would ({ 2 }) you ({ 2 }) mind ({ 3 }) changing ({ 4 5 }) my ({ 4 }) room ({ 6 }) ? ({ 7 }) 
# 1.000000
me voy a ir el viernes once de abril a las ocho y cuarto de la noche .
NULL ({ }) i ({ 2 }) am ({ 1 2 }) leaving ({ 2 3 4 }) on ({ 5 }) friday ({ 5 6 }) april ({ 8 9 }) the ({ }) eleventh ({ 7 }) at ({ 10 11 }) a ({ 13 }) quarter ({ 14 }) past ({ 13 14 }) eight ({ 12 }) in ({ 15 }) the ({ 16 }) evening ({ 17 }) . ({ 18 }) 
# 1.000000
deseamos que nos despierten a las once , por favor .
NULL ({ }) we ({ 1 }) want ({ 1 }) you ({ 2 }) to ({ 2 4 }) wake ({ 4 }) us ({ 3 }) up ({ 4 5 }) at ({ 6 }) eleven ({ 7 }) , ({ 8 9 }) please ({ 10 }) . ({ 11 }) 
# 1.000000
tengo la reserva de una habitación tranquila doble con televisión , cuarto de baño y una buena vista del mar .
NULL ({ }) i ({ 1 }) have ({ 1 }) a ({ }) reservation ({ 3 }) for ({ 19 }) a ({ 5 }) quiet ({ 7 }) , ({ }) double ({ 8 }) room ({ 6 }) with ({ 9 }) a ({ 9 }) tv ({ 10 }) , ({ 11 }) a ({ 12 }) bathroom ({ 12 13 14 }) and ({ 15 }) a ({ 15 16 }) good ({ 17 18 }) view ({ 17 }) of ({ 4 }) the ({ 2 }) sea ({ 19 20 }) . ({ 21 }) 
# 1.000000
tengo reservada una habitación tranquila .
NULL ({ }) i ({ 1 }) have ({ 1 2 }) booked ({ 2 }) a ({ 3 }) quiet ({ 5 }) room ({ 4 }) . ({ 6 }) 
# 1.000000
me parece que existe un problema en mi cuenta de la habitación nueve treinta y tres .
NULL ({ }) i ({ 3 }) think ({ 1 2 }) that ({ 2 3 4 }) there ({ 4 }) is ({ 4 }) a ({ 5 }) problem ({ 5 6 }) in ({ 7 }) my ({ 8 }) bill ({ 9 }) for ({ 10 }) room ({ 12 }) number ({ 11 13 }) nine ({ 13 }) three ({ 14 }) three ({ 15 16 }) . ({ 17 }) 
# 1.000000
he reservado una habitación tranquila .
NULL ({ }) i ({ 1 }) have ({ 1 2 }) booked ({ 2 }) a ({ 3 }) quiet ({ 5 }) room ({ 4 }) . ({ 6 }) 
# 1.000000
por favor , ¿ le importaría mostrarnos una habitación con teléfono ?
NULL ({ 12 }) would ({ 5 }) you ({ 5 }) mind ({ 6 }) showing ({ 7 }) us ({ 7 }) a ({ 8 }) room ({ 9 }) with ({ 10 }) a ({ 11 }) telephone ({ 11 }) , ({ 1 3 }) please ({ 2 3 }) ? ({ 4 }) 
# 1.000000
¿ cuánto cuesta por semana una habitación doble incluyendo servicio de habitaciones , por favor ?
NULL ({ 1 }) how ({ 2 }) much ({ 2 }) does ({ 3 }) a ({ 6 }) double ({ 8 }) room ({ 7 }) including ({ 9 }) room ({ 10 }) service ({ 10 11 12 }) cost ({ }) per ({ 4 5 }) week ({ 5 }) , ({ 13 14 }) please ({ 14 15 }) ? ({ 16 }) 
# 1.000000
¿ podríamos reservar dos habitaciones tranquilas para esta noche ?
NULL ({ 1 }) could ({ 2 }) we ({ 2 }) book ({ 2 3 }) two ({ 4 }) quiet ({ 6 }) rooms ({ 5 6 }) for ({ 7 }) tonight ({ 8 9 }) ? ({ 10 }) 
# 1.000000
¿ cuánto cuesta una habitación individual , por favor ?
NULL ({ 1 }) how ({ 2 }) much ({ 2 }) does ({ 3 }) a ({ 4 }) single ({ 6 }) room ({ 5 }) cost ({ }) , ({ 7 8 }) please ({ 8 9 }) ? ({ 10 }) 
# 1.000000
hemos hecho una reserva .
NULL ({ }) we ({ 1 }) have ({ 2 }) made ({ 2 }) a ({ 3 }) reservation ({ 4 }) . ({ 5 }) 
# 1.000000
¿ les importaría despertarme a las tres y cuarto , por favor ?
NULL ({ 2 }) would ({ 3 }) you ({ 1 3 }) mind ({ 3 }) waking ({ 4 }) me ({ 4 }) up ({ 4 5 }) at ({ 6 }) a ({ 8 }) quarter ({ 9 }) past ({ 8 9 }) three ({ 7 }) , ({ 10 11 }) please ({ 11 12 }) ? ({ 13 }) 
# 1.000000
me marcharé el viernes uno a las tres .
NULL ({ 5 }) i ({ 1 2 }) leave ({ 2 }) on ({ 3 }) friday ({ 4 }) the ({ }) first ({ 2 }) at ({ 6 7 }) three ({ 8 }) . ({ 9 }) 
# 1.000000
dennos las llaves de la habitación nueve nueve dos , por favor .
NULL ({ 5 }) give ({ 1 }) us ({ 1 }) the ({ 2 }) keys ({ 2 3 }) to ({ 4 }) room ({ 6 }) number ({ 7 }) nine ({ 7 }) nine ({ 7 8 }) two ({ 9 }) , ({ 10 11 }) please ({ 12 }) . ({ 13 }) 
# 1.000000
por favor , nos hace la cuenta de la habitación siete treinta y dos .
NULL ({ 3 9 }) could ({ }) you ({ }) make ({ 5 }) out ({ 5 }) the ({ 6 }) bill ({ 7 }) for ({ 8 }) room ({ 10 }) number ({ 11 }) seven ({ 11 }) three ({ 12 13 }) two ({ 14 }) for ({ 15 }) us ({ 4 }) , ({ 1 }) please ({ 1 2 }) ? ({ 1 }) 
# 1.000000
reservé una habitación doble y tranquila con televisión para esta noche a nombre de la señorita marina miralles , por favor .
NULL ({ 12 13 }) i ({ 1 }) booked ({ 1 }) a ({ 2 3 }) quiet ({ 5 6 }) , ({ 19 20 21 }) double ({ 4 }) room ({ }) with ({ 7 }) a ({ 7 }) tv ({ 8 }) for ({ 9 }) tonight ({ 10 11 }) for ({ 14 }) miss ({ 15 16 }) marina ({ 17 }) miralles ({ 18 }) . ({ 22 }) 
# 1.000000
¿ podría pedirnos un taxi ?, por favor .
NULL ({ 9 }) could ({ 2 }) you ({ 2 }) ask ({ 3 4 }) for ({ 3 }) a ({ }) taxi ({ 5 6 }) for ({ 5 }) us ({ }) , ({ 7 }) please ({ 8 }) ? ({ 1 }) 
# 1.000000
por favor , ¿ pueden bajar nuestros bultos a la habitación número cuatrocientos catorce ?
NULL ({ 10 15 }) can ({ 5 }) you ({ 5 }) send ({ 6 }) down ({ 6 }) our ({ 7 }) luggage ({ 7 8 9 }) to ({ 9 }) room ({ 11 }) number ({ 12 }) four ({ 13 }) one ({ 14 }) four ({ 14 }) , ({ 1 }) please ({ 1 2 3 }) ? ({ 4 }) 
# 1.000000
¿ cuánto cuesta una habitación individual con media pensión ?
NULL ({ }) how ({ 2 }) much ({ 2 }) does ({ 3 }) a ({ 4 }) single ({ 6 }) room ({ 5 }) with ({ 7 }) half ({ 8 }) board ({ 9 }) cost ({ 9 10 }) ? ({ 1 10 }) 
# 1.000000
por favor , ¿ me podría llamar a un taxi ?
NULL ({ 11 }) could ({ 6 }) you ({ 6 }) call ({ 7 8 }) a ({ 9 }) taxi ({ 9 10 }) for ({ 9 }) me ({ 5 }) , ({ 1 }) please ({ 2 3 }) ? ({ 4 }) 
# 1.000000
¿ me pueden despertar a las dos en punto , por favor ?
NULL ({ }) can ({ 3 }) you ({ 1 3 }) wake ({ 4 }) me ({ 2 }) up ({ 4 5 }) at ({ 6 }) two ({ 7 }) o ({ 9 }) ' ({ 8 9 }) clock ({ 9 }) , ({ 10 11 }) please ({ 12 }) ? ({ 13 }) 
# 1.000000
¿ nos podría despertar a las siete y media ?
NULL ({ 1 }) could ({ 3 }) you ({ 3 }) wake ({ 4 }) us ({ 2 4 }) up ({ 4 }) at ({ 5 6 }) half ({ 9 }) past ({ 8 9 }) seven ({ 7 }) ? ({ 10 }) 
# 1.000000
